digraph Tree {
node [shape=box] ;
0 [label="X[1] <= 0.5982\ngini = 0.2358\nsamples = 54211\nvalue = [7404, 46807]"] ;
1 [label="X[0] <= 0.8028\ngini = 0.2608\nsamples = 37847\nvalue = [5836, 32011]"] ;
0 -> 1 [labeldistance=2.5, labelangle=45, headlabel="True"] ;
2 [label="X[1] <= -1.5426\ngini = 0.2672\nsamples = 35350\nvalue = [5615, 29735]"] ;
1 -> 2 ;
3 [label="X[31] <= 2.4841\ngini = 0.1894\nsamples = 4127\nvalue = [437, 3690]"] ;
2 -> 3 ;
4 [label="X[2] <= 3.4198\ngini = 0.1846\nsamples = 3994\nvalue = [411, 3583]"] ;
3 -> 4 ;
5 [label="X[0] <= 0.1461\ngini = 0.184\nsamples = 3991\nvalue = [409, 3582]"] ;
4 -> 5 ;
6 [label="X[436] <= 47.5189\ngini = 0.1801\nsamples = 3878\nvalue = [388, 3490]"] ;
5 -> 6 ;
7 [label="X[123] <= 23.2671\ngini = 0.1797\nsamples = 3877\nvalue = [387, 3490]"] ;
6 -> 7 ;
8 [label="X[34] <= 41.1503\ngini = 0.1793\nsamples = 3876\nvalue = [386, 3490]"] ;
7 -> 8 ;
9 [label="X[376] <= 36.8039\ngini = 0.179\nsamples = 3875\nvalue = [385, 3490]"] ;
8 -> 9 ;
10 [label="X[51] <= 16.7809\ngini = 0.1786\nsamples = 3874\nvalue = [384, 3490]"] ;
9 -> 10 ;
11 [label="X[2] <= -0.7702\ngini = 0.1782\nsamples = 3873\nvalue = [383, 3490]"] ;
10 -> 11 ;
12 [label="X[1] <= -2.0778\ngini = 0.5\nsamples = 4\nvalue = [2, 2]"] ;
11 -> 12 ;
13 [label="gini = 0.0\nsamples = 2\nvalue = [0, 2]"] ;
12 -> 13 ;
14 [label="gini = 0.0\nsamples = 2\nvalue = [2, 0]"] ;
12 -> 14 ;
15 [label="X[2] <= -0.6952\ngini = 0.1776\nsamples = 3869\nvalue = [381, 3488]"] ;
11 -> 15 ;
16 [label="X[3] <= -0.4561\ngini = 0.048\nsamples = 122\nvalue = [3, 119]"] ;
15 -> 16 ;
17 [label="X[2] <= -0.7685\ngini = 0.0325\nsamples = 121\nvalue = [2, 119]"] ;
16 -> 17 ;
18 [label="X[3] <= -0.4632\ngini = 0.2449\nsamples = 7\nvalue = [1, 6]"] ;
17 -> 18 ;
19 [label="gini = 0.0\nsamples = 6\nvalue = [0, 6]"] ;
18 -> 19 ;
20 [label="gini = 0.0\nsamples = 1\nvalue = [1, 0]"] ;
18 -> 20 ;
21 [label="X[0] <= -0.2848\ngini = 0.0174\nsamples = 114\nvalue = [1, 113]"] ;
17 -> 21 ;
22 [label="X[2] <= -0.7007\ngini = 0.0832\nsamples = 23\nvalue = [1, 22]"] ;
21 -> 22 ;
23 [label="gini = 0.0\nsamples = 18\nvalue = [0, 18]"] ;
22 -> 23 ;
24 [label="X[2] <= -0.7004\ngini = 0.32\nsamples = 5\nvalue = [1, 4]"] ;
22 -> 24 ;
25 [label="gini = 0.0\nsamples = 1\nvalue = [1, 0]"] ;
24 -> 25 ;
26 [label="gini = 0.0\nsamples = 4\nvalue = [0, 4]"] ;
24 -> 26 ;
27 [label="gini = 0.0\nsamples = 91\nvalue = [0, 91]"] ;
21 -> 27 ;
28 [label="gini = 0.0\nsamples = 1\nvalue = [1, 0]"] ;
16 -> 28 ;
29 [label="X[2] <= -0.6951\ngini = 0.1814\nsamples = 3747\nvalue = [378, 3369]"] ;
15 -> 29 ;
30 [label="gini = 0.0\nsamples = 1\nvalue = [1, 0]"] ;
29 -> 30 ;
31 [label="X[2] <= -0.6843\ngini = 0.181\nsamples = 3746\nvalue = [377, 3369]"] ;
29 -> 31 ;
32 [label="X[2] <= -0.6876\ngini = 0.2558\nsamples = 186\nvalue = [28, 158]"] ;
31 -> 32 ;
33 [label="X[3] <= -0.4653\ngini = 0.2028\nsamples = 131\nvalue = [15, 116]"] ;
32 -> 33 ;
34 [label="X[3] <= -0.4653\ngini = 0.2252\nsamples = 116\nvalue = [15, 101]"] ;
33 -> 34 ;
35 [label="X[2] <= -0.6928\ngini = 0.2138\nsamples = 115\nvalue = [14, 101]"] ;
34 -> 35 ;
36 [label="X[0] <= -0.172\ngini = 0.0868\nsamples = 44\nvalue = [2, 42]"] ;
35 -> 36 ;
37 [label="gini = 0.0\nsamples = 36\nvalue = [0, 36]"] ;
36 -> 37 ;
38 [label="X[3] <= -0.47\ngini = 0.375\nsamples = 8\nvalue = [2, 6]"] ;
36 -> 38 ;
39 [label="gini = 0.0\nsamples = 6\nvalue = [0, 6]"] ;
38 -> 39 ;
40 [label="gini = 0.0\nsamples = 2\nvalue = [2, 0]"] ;
38 -> 40 ;
41 [label="X[2] <= -0.6928\ngini = 0.2809\nsamples = 71\nvalue = [12, 59]"] ;
35 -> 41 ;
42 [label="X[87] <= 2.6994\ngini = 0.375\nsamples = 4\nvalue = [3, 1]"] ;
41 -> 42 ;
43 [label="gini = 0.0\nsamples = 2\nvalue = [2, 0]"] ;
42 -> 43 ;
44 [label="X[0] <= -0.2541\ngini = 0.5\nsamples = 2\nvalue = [1, 1]"] ;
42 -> 44 ;
45 [label="gini = 0.0\nsamples = 1\nvalue = [1, 0]"] ;
44 -> 45 ;
46 [label="gini = 0.0\nsamples = 1\nvalue = [0, 1]"] ;
44 -> 46 ;
47 [label="X[3] <= -0.4708\ngini = 0.2326\nsamples = 67\nvalue = [9, 58]"] ;
41 -> 47 ;
48 [label="X[0] <= -0.2541\ngini = 0.3662\nsamples = 29\nvalue = [7, 22]"] ;
47 -> 48 ;
49 [label="X[2] <= -0.6902\ngini = 0.4688\nsamples = 16\nvalue = [6, 10]"] ;
48 -> 49 ;
50 [label="X[2] <= -0.6911\ngini = 0.4898\nsamples = 7\nvalue = [4, 3]"] ;
49 -> 50 ;
51 [label="X[0] <= -0.2643\ngini = 0.375\nsamples = 4\nvalue = [1, 3]"] ;
50 -> 51 ;
52 [label="gini = 0.0\nsamples = 3\nvalue = [0, 3]"] ;
51 -> 52 ;
53 [label="gini = 0.0\nsamples = 1\nvalue = [1, 0]"] ;
51 -> 53 ;
54 [label="gini = 0.0\nsamples = 3\nvalue = [3, 0]"] ;
50 -> 54 ;
55 [label="X[3] <= -0.4737\ngini = 0.3457\nsamples = 9\nvalue = [2, 7]"] ;
49 -> 55 ;
56 [label="X[2] <= -0.6901\ngini = 0.48\nsamples = 5\nvalue = [2, 3]"] ;
55 -> 56 ;
57 [label="gini = 0.0\nsamples = 1\nvalue = [1, 0]"] ;
56 -> 57 ;
58 [label="X[3] <= -0.4737\ngini = 0.375\nsamples = 4\nvalue = [1, 3]"] ;
56 -> 58 ;
59 [label="gini = 0.0\nsamples = 3\nvalue = [0, 3]"] ;
58 -> 59 ;
60 [label="gini = 0.0\nsamples = 1\nvalue = [1, 0]"] ;
58 -> 60 ;
61 [label="gini = 0.0\nsamples = 4\nvalue = [0, 4]"] ;
55 -> 61 ;
62 [label="X[2] <= -0.6922\ngini = 0.142\nsamples = 13\nvalue = [1, 12]"] ;
48 -> 62 ;
63 [label="gini = 0.0\nsamples = 1\nvalue = [1, 0]"] ;
62 -> 63 ;
64 [label="gini = 0.0\nsamples = 12\nvalue = [0, 12]"] ;
62 -> 64 ;
65 [label="X[3] <= -0.4688\ngini = 0.0997\nsamples = 38\nvalue = [2, 36]"] ;
47 -> 65 ;
66 [label="gini = 0.0\nsamples = 22\nvalue = [0, 22]"] ;
65 -> 66 ;
67 [label="X[3] <= -0.4688\ngini = 0.2188\nsamples = 16\nvalue = [2, 14]"] ;
65 -> 67 ;
68 [label="gini = 0.0\nsamples = 1\nvalue = [1, 0]"] ;
67 -> 68 ;
69 [label="X[3] <= -0.4687\ngini = 0.1244\nsamples = 15\nvalue = [1, 14]"] ;
67 -> 69 ;
70 [label="X[3] <= -0.4687\ngini = 0.4444\nsamples = 3\nvalue = [1, 2]"] ;
69 -> 70 ;
71 [label="gini = 0.0\nsamples = 2\nvalue = [0, 2]"] ;
70 -> 71 ;
72 [label="gini = 0.0\nsamples = 1\nvalue = [1, 0]"] ;
70 -> 72 ;
73 [label="gini = 0.0\nsamples = 12\nvalue = [0, 12]"] ;
69 -> 73 ;
74 [label="gini = 0.0\nsamples = 1\nvalue = [1, 0]"] ;
34 -> 74 ;
75 [label="gini = 0.0\nsamples = 15\nvalue = [0, 15]"] ;
33 -> 75 ;
76 [label="X[3] <= -0.4728\ngini = 0.361\nsamples = 55\nvalue = [13, 42]"] ;
32 -> 76 ;
77 [label="gini = 0.0\nsamples = 12\nvalue = [0, 12]"] ;
76 -> 77 ;
78 [label="X[3] <= -0.4711\ngini = 0.4218\nsamples = 43\nvalue = [13, 30]"] ;
76 -> 78 ;
79 [label="X[2] <= -0.6847\ngini = 0.375\nsamples = 8\nvalue = [6, 2]"] ;
78 -> 79 ;
80 [label="X[2] <= -0.6859\ngini = 0.2449\nsamples = 7\nvalue = [6, 1]"] ;
79 -> 80 ;
81 [label="X[3] <= -0.472\ngini = 0.5\nsamples = 2\nvalue = [1, 1]"] ;
80 -> 81 ;
82 [label="gini = 0.0\nsamples = 1\nvalue = [0, 1]"] ;
81 -> 82 ;
83 [label="gini = 0.0\nsamples = 1\nvalue = [1, 0]"] ;
81 -> 83 ;
84 [label="gini = 0.0\nsamples = 5\nvalue = [5, 0]"] ;
80 -> 84 ;
85 [label="gini = 0.0\nsamples = 1\nvalue = [0, 1]"] ;
79 -> 85 ;
86 [label="X[2] <= -0.6874\ngini = 0.32\nsamples = 35\nvalue = [7, 28]"] ;
78 -> 86 ;
87 [label="X[154] <= 3.2998\ngini = 0.5\nsamples = 4\nvalue = [2, 2]"] ;
86 -> 87 ;
88 [label="X[3] <= -0.4696\ngini = 0.4444\nsamples = 3\nvalue = [1, 2]"] ;
87 -> 88 ;
89 [label="gini = 0.0\nsamples = 1\nvalue = [0, 1]"] ;
88 -> 89 ;
90 [label="X[0] <= -0.2541\ngini = 0.5\nsamples = 2\nvalue = [1, 1]"] ;
88 -> 90 ;
91 [label="gini = 0.0\nsamples = 1\nvalue = [0, 1]"] ;
90 -> 91 ;
92 [label="gini = 0.0\nsamples = 1\nvalue = [1, 0]"] ;
90 -> 92 ;
93 [label="gini = 0.0\nsamples = 1\nvalue = [1, 0]"] ;
87 -> 93 ;
94 [label="X[0] <= -0.2746\ngini = 0.2706\nsamples = 31\nvalue = [5, 26]"] ;
86 -> 94 ;
95 [label="gini = 0.0\nsamples = 11\nvalue = [0, 11]"] ;
94 -> 95 ;
96 [label="X[2] <= -0.6844\ngini = 0.375\nsamples = 20\nvalue = [5, 15]"] ;
94 -> 96 ;
97 [label="X[3] <= -0.4659\ngini = 0.3324\nsamples = 19\nvalue = [4, 15]"] ;
96 -> 97 ;
98 [label="X[3] <= -0.4665\ngini = 0.4082\nsamples = 14\nvalue = [4, 10]"] ;
97 -> 98 ;
99 [label="X[2] <= -0.6864\ngini = 0.355\nsamples = 13\nvalue = [3, 10]"] ;
98 -> 99 ;
100 [label="gini = 0.0\nsamples = 6\nvalue = [0, 6]"] ;
99 -> 100 ;
101 [label="X[1] <= -2.613\ngini = 0.4898\nsamples = 7\nvalue = [3, 4]"] ;
99 -> 101 ;
102 [label="gini = 0.0\nsamples = 2\nvalue = [0, 2]"] ;
101 -> 102 ;
103 [label="X[2] <= -0.685\ngini = 0.48\nsamples = 5\nvalue = [3, 2]"] ;
101 -> 103 ;
104 [label="gini = 0.0\nsamples = 2\nvalue = [2, 0]"] ;
103 -> 104 ;
105 [label="X[1] <= -2.0778\ngini = 0.4444\nsamples = 3\nvalue = [1, 2]"] ;
103 -> 105 ;
106 [label="gini = 0.0\nsamples = 1\nvalue = [0, 1]"] ;
105 -> 106 ;
107 [label="X[2] <= -0.6847\ngini = 0.5\nsamples = 2\nvalue = [1, 1]"] ;
105 -> 107 ;
108 [label="gini = 0.0\nsamples = 1\nvalue = [0, 1]"] ;
107 -> 108 ;
109 [label="gini = 0.0\nsamples = 1\nvalue = [1, 0]"] ;
107 -> 109 ;
110 [label="gini = 0.0\nsamples = 1\nvalue = [1, 0]"] ;
98 -> 110 ;
111 [label="gini = 0.0\nsamples = 5\nvalue = [0, 5]"] ;
97 -> 111 ;
112 [label="gini = 0.0\nsamples = 1\nvalue = [1, 0]"] ;
96 -> 112 ;
113 [label="X[3] <= 0.8844\ngini = 0.1768\nsamples = 3560\nvalue = [349, 3211]"] ;
31 -> 113 ;
114 [label="X[2] <= 1.5398\ngini = 0.1796\nsamples = 3469\nvalue = [346, 3123]"] ;
113 -> 114 ;
115 [label="X[3] <= 0.8844\ngini = 0.1792\nsamples = 3468\nvalue = [345, 3123]"] ;
114 -> 115 ;
116 [label="X[1] <= -2.613\ngini = 0.1788\nsamples = 3467\nvalue = [344, 3123]"] ;
115 -> 116 ;
117 [label="X[39] <= 12.5236\ngini = 0.1391\nsamples = 585\nvalue = [44, 541]"] ;
116 -> 117 ;
118 [label="X[309] <= 10.5042\ngini = 0.1337\nsamples = 583\nvalue = [42, 541]"] ;
117 -> 118 ;
119 [label="X[387] <= 13.598\ngini = 0.131\nsamples = 582\nvalue = [41, 541]"] ;
118 -> 119 ;
120 [label="X[398] <= 2.4912\ngini = 0.1284\nsamples = 580\nvalue = [40, 540]"] ;
119 -> 120 ;
121 [label="X[2] <= 0.6002\ngini = 0.1219\nsamples = 552\nvalue = [36, 516]"] ;
120 -> 121 ;
122 [label="X[2] <= 0.5953\ngini = 0.1271\nsamples = 528\nvalue = [36, 492]"] ;
121 -> 122 ;
123 [label="X[0] <= -0.2438\ngini = 0.1187\nsamples = 521\nvalue = [33, 488]"] ;
122 -> 123 ;
124 [label="X[0] <= -0.2541\ngini = 0.1304\nsamples = 442\nvalue = [31, 411]"] ;
123 -> 124 ;
125 [label="X[2] <= -0.1731\ngini = 0.1188\nsamples = 410\nvalue = [26, 384]"] ;
124 -> 125 ;
126 [label="X[2] <= -0.1735\ngini = 0.134\nsamples = 360\nvalue = [26, 334]"] ;
125 -> 126 ;
127 [label="X[3] <= -0.4815\ngini = 0.1296\nsamples = 359\nvalue = [25, 334]"] ;
126 -> 127 ;
128 [label="X[2] <= -0.1865\ngini = 0.0793\nsamples = 145\nvalue = [6, 139]"] ;
127 -> 128 ;
129 [label="gini = 0.0\nsamples = 79\nvalue = [0, 79]"] ;
128 -> 129 ;
130 [label="X[2] <= -0.1861\ngini = 0.1653\nsamples = 66\nvalue = [6, 60]"] ;
128 -> 130 ;
131 [label="gini = 0.0\nsamples = 1\nvalue = [1, 0]"] ;
130 -> 131 ;
132 [label="X[2] <= -0.1859\ngini = 0.142\nsamples = 65\nvalue = [5, 60]"] ;
130 -> 132 ;
133 [label="X[3] <= -0.5849\ngini = 0.4444\nsamples = 3\nvalue = [1, 2]"] ;
132 -> 133 ;
134 [label="gini = 0.0\nsamples = 2\nvalue = [0, 2]"] ;
133 -> 134 ;
135 [label="gini = 0.0\nsamples = 1\nvalue = [1, 0]"] ;
133 -> 135 ;
136 [label="X[2] <= -0.1779\ngini = 0.1207\nsamples = 62\nvalue = [4, 58]"] ;
132 -> 136 ;
137 [label="X[2] <= -0.1843\ngini = 0.0487\nsamples = 40\nvalue = [1, 39]"] ;
136 -> 137 ;
138 [label="X[2] <= -0.1844\ngini = 0.1528\nsamples = 12\nvalue = [1, 11]"] ;
137 -> 138 ;
139 [label="gini = 0.0\nsamples = 11\nvalue = [0, 11]"] ;
138 -> 139 ;
140 [label="gini = 0.0\nsamples = 1\nvalue = [1, 0]"] ;
138 -> 140 ;
141 [label="gini = 0.0\nsamples = 28\nvalue = [0, 28]"] ;
137 -> 141 ;
142 [label="X[2] <= -0.1778\ngini = 0.2355\nsamples = 22\nvalue = [3, 19]"] ;
136 -> 142 ;
143 [label="gini = 0.0\nsamples = 1\nvalue = [1, 0]"] ;
142 -> 143 ;
144 [label="X[2] <= -0.1777\ngini = 0.1723\nsamples = 21\nvalue = [2, 19]"] ;
142 -> 144 ;
145 [label="X[2] <= -0.1777\ngini = 0.4444\nsamples = 3\nvalue = [1, 2]"] ;
144 -> 145 ;
146 [label="gini = 0.0\nsamples = 2\nvalue = [0, 2]"] ;
145 -> 146 ;
147 [label="gini = 0.0\nsamples = 1\nvalue = [1, 0]"] ;
145 -> 147 ;
148 [label="X[3] <= -0.5843\ngini = 0.1049\nsamples = 18\nvalue = [1, 17]"] ;
144 -> 148 ;
149 [label="gini = 0.0\nsamples = 15\nvalue = [0, 15]"] ;
148 -> 149 ;
150 [label="X[3] <= -0.5834\ngini = 0.4444\nsamples = 3\nvalue = [1, 2]"] ;
148 -> 150 ;
151 [label="gini = 0.0\nsamples = 1\nvalue = [1, 0]"] ;
150 -> 151 ;
152 [label="gini = 0.0\nsamples = 2\nvalue = [0, 2]"] ;
150 -> 152 ;
153 [label="X[3] <= -0.4813\ngini = 0.1618\nsamples = 214\nvalue = [19, 195]"] ;
127 -> 153 ;
154 [label="gini = 0.0\nsamples = 1\nvalue = [1, 0]"] ;
153 -> 154 ;
155 [label="X[3] <= -0.478\ngini = 0.1547\nsamples = 213\nvalue = [18, 195]"] ;
153 -> 155 ;
156 [label="X[3] <= -0.4781\ngini = 0.2706\nsamples = 31\nvalue = [5, 26]"] ;
155 -> 156 ;
157 [label="X[2] <= -0.6284\ngini = 0.2311\nsamples = 30\nvalue = [4, 26]"] ;
156 -> 157 ;
158 [label="X[3] <= -0.4795\ngini = 0.142\nsamples = 26\nvalue = [2, 24]"] ;
157 -> 158 ;
159 [label="X[3] <= -0.4796\ngini = 0.2604\nsamples = 13\nvalue = [2, 11]"] ;
158 -> 159 ;
160 [label="X[2] <= -0.6443\ngini = 0.1528\nsamples = 12\nvalue = [1, 11]"] ;
159 -> 160 ;
161 [label="gini = 0.0\nsamples = 9\nvalue = [0, 9]"] ;
160 -> 161 ;
162 [label="X[2] <= -0.6401\ngini = 0.4444\nsamples = 3\nvalue = [1, 2]"] ;
160 -> 162 ;
163 [label="gini = 0.0\nsamples = 1\nvalue = [1, 0]"] ;
162 -> 163 ;
164 [label="gini = 0.0\nsamples = 2\nvalue = [0, 2]"] ;
162 -> 164 ;
165 [label="gini = 0.0\nsamples = 1\nvalue = [1, 0]"] ;
159 -> 165 ;
166 [label="gini = 0.0\nsamples = 13\nvalue = [0, 13]"] ;
158 -> 166 ;
167 [label="X[0] <= -0.2695\ngini = 0.5\nsamples = 4\nvalue = [2, 2]"] ;
157 -> 167 ;
168 [label="X[2] <= -0.6267\ngini = 0.4444\nsamples = 3\nvalue = [1, 2]"] ;
167 -> 168 ;
169 [label="gini = 0.0\nsamples = 1\nvalue = [0, 1]"] ;
168 -> 169 ;
170 [label="X[3] <= -0.4783\ngini = 0.5\nsamples = 2\nvalue = [1, 1]"] ;
168 -> 170 ;
171 [label="gini = 0.0\nsamples = 1\nvalue = [1, 0]"] ;
170 -> 171 ;
172 [label="gini = 0.0\nsamples = 1\nvalue = [0, 1]"] ;
170 -> 172 ;
173 [label="gini = 0.0\nsamples = 1\nvalue = [1, 0]"] ;
167 -> 173 ;
174 [label="gini = 0.0\nsamples = 1\nvalue = [1, 0]"] ;
156 -> 174 ;
175 [label="X[2] <= -0.3453\ngini = 0.1327\nsamples = 182\nvalue = [13, 169]"] ;
155 -> 175 ;
176 [label="X[2] <= -0.6348\ngini = 0.1217\nsamples = 169\nvalue = [11, 158]"] ;
175 -> 176 ;
177 [label="X[2] <= -0.635\ngini = 0.1563\nsamples = 117\nvalue = [10, 107]"] ;
176 -> 177 ;
178 [label="X[0] <= -0.2746\ngini = 0.1431\nsamples = 116\nvalue = [9, 107]"] ;
177 -> 178 ;
179 [label="X[3] <= -0.4768\ngini = 0.1818\nsamples = 89\nvalue = [9, 80]"] ;
178 -> 179 ;
180 [label="X[3] <= -0.4768\ngini = 0.2907\nsamples = 17\nvalue = [3, 14]"] ;
179 -> 180 ;
181 [label="X[0] <= -0.2848\ngini = 0.2188\nsamples = 16\nvalue = [2, 14]"] ;
180 -> 181 ;
182 [label="X[2] <= -0.6669\ngini = 0.2975\nsamples = 11\nvalue = [2, 9]"] ;
181 -> 182 ;
183 [label="gini = 0.0\nsamples = 3\nvalue = [0, 3]"] ;
182 -> 183 ;
184 [label="X[2] <= -0.6663\ngini = 0.375\nsamples = 8\nvalue = [2, 6]"] ;
182 -> 184 ;
185 [label="gini = 0.0\nsamples = 1\nvalue = [1, 0]"] ;
184 -> 185 ;
186 [label="X[3] <= -0.477\ngini = 0.2449\nsamples = 7\nvalue = [1, 6]"] ;
184 -> 186 ;
187 [label="X[2] <= -0.6573\ngini = 0.5\nsamples = 2\nvalue = [1, 1]"] ;
186 -> 187 ;
188 [label="gini = 0.0\nsamples = 1\nvalue = [1, 0]"] ;
187 -> 188 ;
189 [label="gini = 0.0\nsamples = 1\nvalue = [0, 1]"] ;
187 -> 189 ;
190 [label="gini = 0.0\nsamples = 5\nvalue = [0, 5]"] ;
186 -> 190 ;
191 [label="gini = 0.0\nsamples = 5\nvalue = [0, 5]"] ;
181 -> 191 ;
192 [label="gini = 0.0\nsamples = 1\nvalue = [1, 0]"] ;
180 -> 192 ;
193 [label="X[3] <= -0.4675\ngini = 0.1528\nsamples = 72\nvalue = [6, 66]"] ;
179 -> 193 ;
194 [label="X[2] <= -0.6586\ngini = 0.1031\nsamples = 55\nvalue = [3, 52]"] ;
193 -> 194 ;
195 [label="gini = 0.0\nsamples = 27\nvalue = [0, 27]"] ;
194 -> 195 ;
196 [label="X[2] <= -0.6584\ngini = 0.1913\nsamples = 28\nvalue = [3, 25]"] ;
194 -> 196 ;
197 [label="gini = 0.0\nsamples = 1\nvalue = [1, 0]"] ;
196 -> 197 ;
198 [label="X[3] <= -0.4718\ngini = 0.1372\nsamples = 27\nvalue = [2, 25]"] ;
196 -> 198 ;
199 [label="gini = 0.0\nsamples = 16\nvalue = [0, 16]"] ;
198 -> 199 ;
200 [label="X[3] <= -0.4717\ngini = 0.2975\nsamples = 11\nvalue = [2, 9]"] ;
198 -> 200 ;
201 [label="gini = 0.0\nsamples = 1\nvalue = [1, 0]"] ;
200 -> 201 ;
202 [label="X[0] <= -0.2848\ngini = 0.18\nsamples = 10\nvalue = [1, 9]"] ;
200 -> 202 ;
203 [label="gini = 0.0\nsamples = 9\nvalue = [0, 9]"] ;
202 -> 203 ;
204 [label="gini = 0.0\nsamples = 1\nvalue = [1, 0]"] ;
202 -> 204 ;
205 [label="X[0] <= -0.2848\ngini = 0.2907\nsamples = 17\nvalue = [3, 14]"] ;
193 -> 205 ;
206 [label="X[3] <= -0.4651\ngini = 0.1327\nsamples = 14\nvalue = [1, 13]"] ;
205 -> 206 ;
207 [label="X[3] <= -0.4654\ngini = 0.32\nsamples = 5\nvalue = [1, 4]"] ;
206 -> 207 ;
208 [label="gini = 0.0\nsamples = 4\nvalue = [0, 4]"] ;
207 -> 208 ;
209 [label="gini = 0.0\nsamples = 1\nvalue = [1, 0]"] ;
207 -> 209 ;
210 [label="gini = 0.0\nsamples = 9\nvalue = [0, 9]"] ;
206 -> 210 ;
211 [label="X[2] <= -0.6668\ngini = 0.4444\nsamples = 3\nvalue = [2, 1]"] ;
205 -> 211 ;
212 [label="gini = 0.0\nsamples = 2\nvalue = [2, 0]"] ;
211 -> 212 ;
213 [label="gini = 0.0\nsamples = 1\nvalue = [0, 1]"] ;
211 -> 213 ;
214 [label="gini = 0.0\nsamples = 27\nvalue = [0, 27]"] ;
178 -> 214 ;
215 [label="gini = 0.0\nsamples = 1\nvalue = [1, 0]"] ;
177 -> 215 ;
216 [label="X[2] <= -0.3598\ngini = 0.0377\nsamples = 52\nvalue = [1, 51]"] ;
176 -> 216 ;
217 [label="gini = 0.0\nsamples = 37\nvalue = [0, 37]"] ;
216 -> 217 ;
218 [label="X[2] <= -0.3594\ngini = 0.1244\nsamples = 15\nvalue = [1, 14]"] ;
216 -> 218 ;
219 [label="gini = 0.0\nsamples = 1\nvalue = [1, 0]"] ;
218 -> 219 ;
220 [label="gini = 0.0\nsamples = 14\nvalue = [0, 14]"] ;
218 -> 220 ;
221 [label="X[2] <= -0.3447\ngini = 0.2604\nsamples = 13\nvalue = [2, 11]"] ;
175 -> 221 ;
222 [label="gini = 0.0\nsamples = 1\nvalue = [1, 0]"] ;
221 -> 222 ;
223 [label="X[3] <= 0.6292\ngini = 0.1528\nsamples = 12\nvalue = [1, 11]"] ;
221 -> 223 ;
224 [label="gini = 0.0\nsamples = 7\nvalue = [0, 7]"] ;
223 -> 224 ;
225 [label="X[3] <= 0.6299\ngini = 0.32\nsamples = 5\nvalue = [1, 4]"] ;
223 -> 225 ;
226 [label="gini = 0.0\nsamples = 1\nvalue = [1, 0]"] ;
225 -> 226 ;
227 [label="gini = 0.0\nsamples = 4\nvalue = [0, 4]"] ;
225 -> 227 ;
228 [label="gini = 0.0\nsamples = 1\nvalue = [1, 0]"] ;
126 -> 228 ;
229 [label="gini = 0.0\nsamples = 50\nvalue = [0, 50]"] ;
125 -> 229 ;
230 [label="X[2] <= -0.1783\ngini = 0.2637\nsamples = 32\nvalue = [5, 27]"] ;
124 -> 230 ;
231 [label="X[298] <= 4.4945\ngini = 0.142\nsamples = 26\nvalue = [2, 24]"] ;
230 -> 231 ;
232 [label="X[91] <= 1.7378\ngini = 0.0768\nsamples = 25\nvalue = [1, 24]"] ;
231 -> 232 ;
233 [label="gini = 0.0\nsamples = 21\nvalue = [0, 21]"] ;
232 -> 233 ;
234 [label="X[3] <= 0.6249\ngini = 0.375\nsamples = 4\nvalue = [1, 3]"] ;
232 -> 234 ;
235 [label="gini = 0.0\nsamples = 1\nvalue = [1, 0]"] ;
234 -> 235 ;
236 [label="gini = 0.0\nsamples = 3\nvalue = [0, 3]"] ;
234 -> 236 ;
237 [label="gini = 0.0\nsamples = 1\nvalue = [1, 0]"] ;
231 -> 237 ;
238 [label="X[3] <= -0.5892\ngini = 0.5\nsamples = 6\nvalue = [3, 3]"] ;
230 -> 238 ;
239 [label="gini = 0.0\nsamples = 1\nvalue = [0, 1]"] ;
238 -> 239 ;
240 [label="X[2] <= -0.172\ngini = 0.48\nsamples = 5\nvalue = [3, 2]"] ;
238 -> 240 ;
241 [label="X[2] <= -0.1773\ngini = 0.4444\nsamples = 3\nvalue = [1, 2]"] ;
240 -> 241 ;
242 [label="gini = 0.0\nsamples = 1\nvalue = [1, 0]"] ;
241 -> 242 ;
243 [label="gini = 0.0\nsamples = 2\nvalue = [0, 2]"] ;
241 -> 243 ;
244 [label="gini = 0.0\nsamples = 2\nvalue = [2, 0]"] ;
240 -> 244 ;
245 [label="X[3] <= -0.5896\ngini = 0.0494\nsamples = 79\nvalue = [2, 77]"] ;
123 -> 245 ;
246 [label="X[3] <= -0.5897\ngini = 0.32\nsamples = 5\nvalue = [1, 4]"] ;
245 -> 246 ;
247 [label="gini = 0.0\nsamples = 4\nvalue = [0, 4]"] ;
246 -> 247 ;
248 [label="gini = 0.0\nsamples = 1\nvalue = [1, 0]"] ;
246 -> 248 ;
249 [label="X[0] <= -0.1258\ngini = 0.0267\nsamples = 74\nvalue = [1, 73]"] ;
245 -> 249 ;
250 [label="gini = 0.0\nsamples = 61\nvalue = [0, 61]"] ;
249 -> 250 ;
251 [label="X[0] <= -0.1053\ngini = 0.142\nsamples = 13\nvalue = [1, 12]"] ;
249 -> 251 ;
252 [label="X[3] <= -0.5359\ngini = 0.4444\nsamples = 3\nvalue = [1, 2]"] ;
251 -> 252 ;
253 [label="gini = 0.0\nsamples = 1\nvalue = [1, 0]"] ;
252 -> 253 ;
254 [label="gini = 0.0\nsamples = 2\nvalue = [0, 2]"] ;
252 -> 254 ;
255 [label="gini = 0.0\nsamples = 10\nvalue = [0, 10]"] ;
251 -> 255 ;
256 [label="X[2] <= 0.5981\ngini = 0.4898\nsamples = 7\nvalue = [3, 4]"] ;
122 -> 256 ;
257 [label="gini = 0.0\nsamples = 2\nvalue = [2, 0]"] ;
256 -> 257 ;
258 [label="X[2] <= 0.6\ngini = 0.32\nsamples = 5\nvalue = [1, 4]"] ;
256 -> 258 ;
259 [label="gini = 0.0\nsamples = 4\nvalue = [0, 4]"] ;
258 -> 259 ;
260 [label="gini = 0.0\nsamples = 1\nvalue = [1, 0]"] ;
258 -> 260 ;
261 [label="gini = 0.0\nsamples = 24\nvalue = [0, 24]"] ;
121 -> 261 ;
262 [label="X[3] <= -0.4733\ngini = 0.2449\nsamples = 28\nvalue = [4, 24]"] ;
120 -> 262 ;
263 [label="X[3] <= -0.4735\ngini = 0.4444\nsamples = 3\nvalue = [2, 1]"] ;
262 -> 263 ;
264 [label="gini = 0.0\nsamples = 1\nvalue = [1, 0]"] ;
263 -> 264 ;
265 [label="X[2] <= -0.6726\ngini = 0.5\nsamples = 2\nvalue = [1, 1]"] ;
263 -> 265 ;
266 [label="gini = 0.0\nsamples = 1\nvalue = [1, 0]"] ;
265 -> 266 ;
267 [label="gini = 0.0\nsamples = 1\nvalue = [0, 1]"] ;
265 -> 267 ;
268 [label="X[0] <= -0.2335\ngini = 0.1472\nsamples = 25\nvalue = [2, 23]"] ;
262 -> 268 ;
269 [label="X[2] <= -0.6711\ngini = 0.0832\nsamples = 23\nvalue = [1, 22]"] ;
268 -> 269 ;
270 [label="gini = 0.0\nsamples = 17\nvalue = [0, 17]"] ;
269 -> 270 ;
271 [label="X[2] <= -0.6709\ngini = 0.2778\nsamples = 6\nvalue = [1, 5]"] ;
269 -> 271 ;
272 [label="gini = 0.0\nsamples = 1\nvalue = [1, 0]"] ;
271 -> 272 ;
273 [label="gini = 0.0\nsamples = 5\nvalue = [0, 5]"] ;
271 -> 273 ;
274 [label="X[0] <= -0.2079\ngini = 0.5\nsamples = 2\nvalue = [1, 1]"] ;
268 -> 274 ;
275 [label="gini = 0.0\nsamples = 1\nvalue = [1, 0]"] ;
274 -> 275 ;
276 [label="gini = 0.0\nsamples = 1\nvalue = [0, 1]"] ;
274 -> 276 ;
277 [label="X[3] <= -0.4843\ngini = 0.5\nsamples = 2\nvalue = [1, 1]"] ;
119 -> 277 ;
278 [label="gini = 0.0\nsamples = 1\nvalue = [0, 1]"] ;
277 -> 278 ;
279 [label="gini = 0.0\nsamples = 1\nvalue = [1, 0]"] ;
277 -> 279 ;
280 [label="gini = 0.0\nsamples = 1\nvalue = [1, 0]"] ;
118 -> 280 ;
281 [label="gini = 0.0\nsamples = 2\nvalue = [2, 0]"] ;
117 -> 281 ;
282 [label="X[296] <= 14.5263\ngini = 0.1865\nsamples = 2882\nvalue = [300, 2582]"] ;
116 -> 282 ;
283 [label="X[0] <= -0.2848\ngini = 0.1856\nsamples = 2879\nvalue = [298, 2581]"] ;
282 -> 283 ;
284 [label="X[3] <= -0.4703\ngini = 0.2449\nsamples = 448\nvalue = [64, 384]"] ;
283 -> 284 ;
285 [label="X[2] <= -0.1552\ngini = 0.3064\nsamples = 270\nvalue = [51, 219]"] ;
284 -> 285 ;
286 [label="X[3] <= -0.4707\ngini = 0.2927\nsamples = 264\nvalue = [47, 217]"] ;
285 -> 286 ;
287 [label="X[136] <= 18.6214\ngini = 0.2845\nsamples = 262\nvalue = [45, 217]"] ;
286 -> 287 ;
288 [label="X[270] <= 33.5953\ngini = 0.2803\nsamples = 261\nvalue = [44, 217]"] ;
287 -> 288 ;
289 [label="X[3] <= -0.4767\ngini = 0.2761\nsamples = 260\nvalue = [43, 217]"] ;
288 -> 289 ;
290 [label="X[3] <= -0.5912\ngini = 0.2419\nsamples = 206\nvalue = [29, 177]"] ;
289 -> 290 ;
291 [label="X[2] <= -0.1787\ngini = 0.5\nsamples = 4\nvalue = [2, 2]"] ;
290 -> 291 ;
292 [label="gini = 0.0\nsamples = 2\nvalue = [2, 0]"] ;
291 -> 292 ;
293 [label="gini = 0.0\nsamples = 2\nvalue = [0, 2]"] ;
291 -> 293 ;
294 [label="X[2] <= -0.6455\ngini = 0.2316\nsamples = 202\nvalue = [27, 175]"] ;
290 -> 294 ;
295 [label="X[1] <= -2.0778\ngini = 0.1068\nsamples = 53\nvalue = [3, 50]"] ;
294 -> 295 ;
296 [label="gini = 0.0\nsamples = 27\nvalue = [0, 27]"] ;
295 -> 296 ;
297 [label="X[2] <= -0.6655\ngini = 0.2041\nsamples = 26\nvalue = [3, 23]"] ;
295 -> 297 ;
298 [label="X[44] <= 7.1959\ngini = 0.4444\nsamples = 6\nvalue = [2, 4]"] ;
297 -> 298 ;
299 [label="X[3] <= -0.4769\ngini = 0.32\nsamples = 5\nvalue = [1, 4]"] ;
298 -> 299 ;
300 [label="gini = 0.0\nsamples = 4\nvalue = [0, 4]"] ;
299 -> 300 ;
301 [label="gini = 0.0\nsamples = 1\nvalue = [1, 0]"] ;
299 -> 301 ;
302 [label="gini = 0.0\nsamples = 1\nvalue = [1, 0]"] ;
298 -> 302 ;
303 [label="X[2] <= -0.6612\ngini = 0.095\nsamples = 20\nvalue = [1, 19]"] ;
297 -> 303 ;
304 [label="X[2] <= -0.6614\ngini = 0.2188\nsamples = 8\nvalue = [1, 7]"] ;
303 -> 304 ;
305 [label="gini = 0.0\nsamples = 7\nvalue = [0, 7]"] ;
304 -> 305 ;
306 [label="gini = 0.0\nsamples = 1\nvalue = [1, 0]"] ;
304 -> 306 ;
307 [label="gini = 0.0\nsamples = 12\nvalue = [0, 12]"] ;
303 -> 307 ;
308 [label="X[2] <= -0.6454\ngini = 0.2703\nsamples = 149\nvalue = [24, 125]"] ;
294 -> 308 ;
309 [label="gini = 0.0\nsamples = 1\nvalue = [1, 0]"] ;
308 -> 309 ;
310 [label="X[3] <= -0.4785\ngini = 0.2625\nsamples = 148\nvalue = [23, 125]"] ;
308 -> 310 ;
311 [label="X[3] <= -0.4786\ngini = 0.2746\nsamples = 140\nvalue = [23, 117]"] ;
310 -> 311 ;
312 [label="X[3] <= -0.4811\ngini = 0.258\nsamples = 138\nvalue = [21, 117]"] ;
311 -> 312 ;
313 [label="X[3] <= -0.4819\ngini = 0.2813\nsamples = 124\nvalue = [21, 103]"] ;
312 -> 313 ;
314 [label="X[3] <= -0.4831\ngini = 0.2723\nsamples = 123\nvalue = [20, 103]"] ;
313 -> 314 ;
315 [label="X[2] <= -0.1643\ngini = 0.2585\nsamples = 118\nvalue = [18, 100]"] ;
314 -> 315 ;
316 [label="X[2] <= -0.175\ngini = 0.2449\nsamples = 112\nvalue = [16, 96]"] ;
315 -> 316 ;
317 [label="X[2] <= -0.1756\ngini = 0.2907\nsamples = 85\nvalue = [15, 70]"] ;
316 -> 317 ;
318 [label="X[2] <= -0.1837\ngini = 0.2524\nsamples = 81\nvalue = [12, 69]"] ;
317 -> 318 ;
319 [label="X[2] <= -0.1842\ngini = 0.32\nsamples = 45\nvalue = [9, 36]"] ;
318 -> 319 ;
320 [label="X[3] <= -0.5816\ngini = 0.2726\nsamples = 43\nvalue = [7, 36]"] ;
319 -> 320 ;
321 [label="X[3] <= -0.5818\ngini = 0.3133\nsamples = 36\nvalue = [7, 29]"] ;
320 -> 321 ;
322 [label="X[172] <= 2.4742\ngini = 0.2841\nsamples = 35\nvalue = [6, 29]"] ;
321 -> 322 ;
323 [label="X[3] <= -0.5846\ngini = 0.3457\nsamples = 27\nvalue = [6, 21]"] ;
322 -> 323 ;
324 [label="X[3] <= -0.5865\ngini = 0.2449\nsamples = 21\nvalue = [3, 18]"] ;
323 -> 324 ;
325 [label="X[3] <= -0.5866\ngini = 0.375\nsamples = 12\nvalue = [3, 9]"] ;
324 -> 325 ;
326 [label="X[3] <= -0.5887\ngini = 0.18\nsamples = 10\nvalue = [1, 9]"] ;
325 -> 326 ;
327 [label="X[1] <= -2.0778\ngini = 0.4444\nsamples = 3\nvalue = [1, 2]"] ;
326 -> 327 ;
328 [label="gini = 0.0\nsamples = 1\nvalue = [1, 0]"] ;
327 -> 328 ;
329 [label="gini = 0.0\nsamples = 2\nvalue = [0, 2]"] ;
327 -> 329 ;
330 [label="gini = 0.0\nsamples = 7\nvalue = [0, 7]"] ;
326 -> 330 ;
331 [label="gini = 0.0\nsamples = 2\nvalue = [2, 0]"] ;
325 -> 331 ;
332 [label="gini = 0.0\nsamples = 9\nvalue = [0, 9]"] ;
324 -> 332 ;
333 [label="X[3] <= -0.5846\ngini = 0.5\nsamples = 6\nvalue = [3, 3]"] ;
323 -> 333 ;
334 [label="gini = 0.0\nsamples = 1\nvalue = [1, 0]"] ;
333 -> 334 ;
335 [label="X[2] <= -0.1854\ngini = 0.48\nsamples = 5\nvalue = [2, 3]"] ;
333 -> 335 ;
336 [label="X[3] <= -0.5842\ngini = 0.375\nsamples = 4\nvalue = [1, 3]"] ;
335 -> 336 ;
337 [label="X[3] <= -0.5845\ngini = 0.5\nsamples = 2\nvalue = [1, 1]"] ;
336 -> 337 ;
338 [label="gini = 0.0\nsamples = 1\nvalue = [0, 1]"] ;
337 -> 338 ;
339 [label="gini = 0.0\nsamples = 1\nvalue = [1, 0]"] ;
337 -> 339 ;
340 [label="gini = 0.0\nsamples = 2\nvalue = [0, 2]"] ;
336 -> 340 ;
341 [label="gini = 0.0\nsamples = 1\nvalue = [1, 0]"] ;
335 -> 341 ;
342 [label="gini = 0.0\nsamples = 8\nvalue = [0, 8]"] ;
322 -> 342 ;
343 [label="gini = 0.0\nsamples = 1\nvalue = [1, 0]"] ;
321 -> 343 ;
344 [label="gini = 0.0\nsamples = 7\nvalue = [0, 7]"] ;
320 -> 344 ;
345 [label="gini = 0.0\nsamples = 2\nvalue = [2, 0]"] ;
319 -> 345 ;
346 [label="X[3] <= -0.5848\ngini = 0.1528\nsamples = 36\nvalue = [3, 33]"] ;
318 -> 346 ;
347 [label="X[2] <= -0.179\ngini = 0.1172\nsamples = 32\nvalue = [2, 30]"] ;
346 -> 347 ;
348 [label="X[2] <= -0.1799\ngini = 0.2076\nsamples = 17\nvalue = [2, 15]"] ;
347 -> 348 ;
349 [label="X[3] <= -0.5879\ngini = 0.1172\nsamples = 16\nvalue = [1, 15]"] ;
348 -> 349 ;
350 [label="X[3] <= -0.5879\ngini = 0.375\nsamples = 4\nvalue = [1, 3]"] ;
349 -> 350 ;
351 [label="gini = 0.0\nsamples = 3\nvalue = [0, 3]"] ;
350 -> 351 ;
352 [label="gini = 0.0\nsamples = 1\nvalue = [1, 0]"] ;
350 -> 352 ;
353 [label="gini = 0.0\nsamples = 12\nvalue = [0, 12]"] ;
349 -> 353 ;
354 [label="gini = 0.0\nsamples = 1\nvalue = [1, 0]"] ;
348 -> 354 ;
355 [label="gini = 0.0\nsamples = 15\nvalue = [0, 15]"] ;
347 -> 355 ;
356 [label="X[2] <= -0.1789\ngini = 0.375\nsamples = 4\nvalue = [1, 3]"] ;
346 -> 356 ;
357 [label="gini = 0.0\nsamples = 3\nvalue = [0, 3]"] ;
356 -> 357 ;
358 [label="gini = 0.0\nsamples = 1\nvalue = [1, 0]"] ;
356 -> 358 ;
359 [label="X[1] <= -2.0778\ngini = 0.375\nsamples = 4\nvalue = [3, 1]"] ;
317 -> 359 ;
360 [label="gini = 0.0\nsamples = 1\nvalue = [0, 1]"] ;
359 -> 360 ;
361 [label="gini = 0.0\nsamples = 3\nvalue = [3, 0]"] ;
359 -> 361 ;
362 [label="X[3] <= -0.5887\ngini = 0.0713\nsamples = 27\nvalue = [1, 26]"] ;
316 -> 362 ;
363 [label="X[3] <= -0.5891\ngini = 0.1975\nsamples = 9\nvalue = [1, 8]"] ;
362 -> 363 ;
364 [label="gini = 0.0\nsamples = 8\nvalue = [0, 8]"] ;
363 -> 364 ;
365 [label="gini = 0.0\nsamples = 1\nvalue = [1, 0]"] ;
363 -> 365 ;
366 [label="gini = 0.0\nsamples = 18\nvalue = [0, 18]"] ;
362 -> 366 ;
367 [label="X[2] <= -0.1641\ngini = 0.4444\nsamples = 6\nvalue = [2, 4]"] ;
315 -> 367 ;
368 [label="gini = 0.0\nsamples = 2\nvalue = [2, 0]"] ;
367 -> 368 ;
369 [label="gini = 0.0\nsamples = 4\nvalue = [0, 4]"] ;
367 -> 369 ;
370 [label="X[3] <= -0.4825\ngini = 0.48\nsamples = 5\nvalue = [2, 3]"] ;
314 -> 370 ;
371 [label="X[157] <= 3.1389\ngini = 0.4444\nsamples = 3\nvalue = [2, 1]"] ;
370 -> 371 ;
372 [label="gini = 0.0\nsamples = 1\nvalue = [1, 0]"] ;
371 -> 372 ;
373 [label="X[2] <= -0.6324\ngini = 0.5\nsamples = 2\nvalue = [1, 1]"] ;
371 -> 373 ;
374 [label="gini = 0.0\nsamples = 1\nvalue = [0, 1]"] ;
373 -> 374 ;
375 [label="gini = 0.0\nsamples = 1\nvalue = [1, 0]"] ;
373 -> 375 ;
376 [label="gini = 0.0\nsamples = 2\nvalue = [0, 2]"] ;
370 -> 376 ;
377 [label="gini = 0.0\nsamples = 1\nvalue = [1, 0]"] ;
313 -> 377 ;
378 [label="gini = 0.0\nsamples = 14\nvalue = [0, 14]"] ;
312 -> 378 ;
379 [label="gini = 0.0\nsamples = 2\nvalue = [2, 0]"] ;
311 -> 379 ;
380 [label="gini = 0.0\nsamples = 8\nvalue = [0, 8]"] ;
310 -> 380 ;
381 [label="X[2] <= -0.6431\ngini = 0.3841\nsamples = 54\nvalue = [14, 40]"] ;
289 -> 381 ;
382 [label="X[2] <= -0.6558\ngini = 0.4614\nsamples = 36\nvalue = [13, 23]"] ;
381 -> 382 ;
383 [label="X[2] <= -0.6824\ngini = 0.4043\nsamples = 32\nvalue = [9, 23]"] ;
382 -> 383 ;
384 [label="gini = 0.0\nsamples = 1\nvalue = [1, 0]"] ;
383 -> 384 ;
385 [label="X[2] <= -0.6606\ngini = 0.3829\nsamples = 31\nvalue = [8, 23]"] ;
383 -> 385 ;
386 [label="X[2] <= -0.6691\ngini = 0.255\nsamples = 20\nvalue = [3, 17]"] ;
385 -> 386 ;
387 [label="X[2] <= -0.6706\ngini = 0.3967\nsamples = 11\nvalue = [3, 8]"] ;
386 -> 387 ;
388 [label="X[2] <= -0.6786\ngini = 0.1975\nsamples = 9\nvalue = [1, 8]"] ;
387 -> 388 ;
389 [label="X[2] <= -0.6793\ngini = 0.375\nsamples = 4\nvalue = [1, 3]"] ;
388 -> 389 ;
390 [label="gini = 0.0\nsamples = 3\nvalue = [0, 3]"] ;
389 -> 390 ;
391 [label="gini = 0.0\nsamples = 1\nvalue = [1, 0]"] ;
389 -> 391 ;
392 [label="gini = 0.0\nsamples = 5\nvalue = [0, 5]"] ;
388 -> 392 ;
393 [label="gini = 0.0\nsamples = 2\nvalue = [2, 0]"] ;
387 -> 393 ;
394 [label="gini = 0.0\nsamples = 9\nvalue = [0, 9]"] ;
386 -> 394 ;
395 [label="X[2] <= -0.6591\ngini = 0.4959\nsamples = 11\nvalue = [5, 6]"] ;
385 -> 395 ;
396 [label="gini = 0.0\nsamples = 2\nvalue = [2, 0]"] ;
395 -> 396 ;
397 [label="X[2] <= -0.6584\ngini = 0.4444\nsamples = 9\nvalue = [3, 6]"] ;
395 -> 397 ;
398 [label="gini = 0.0\nsamples = 3\nvalue = [0, 3]"] ;
397 -> 398 ;
399 [label="X[2] <= -0.6583\ngini = 0.5\nsamples = 6\nvalue = [3, 3]"] ;
397 -> 399 ;
400 [label="gini = 0.0\nsamples = 2\nvalue = [2, 0]"] ;
399 -> 400 ;
401 [label="X[2] <= -0.6559\ngini = 0.375\nsamples = 4\nvalue = [1, 3]"] ;
399 -> 401 ;
402 [label="gini = 0.0\nsamples = 2\nvalue = [0, 2]"] ;
401 -> 402 ;
403 [label="X[1] <= -2.0778\ngini = 0.5\nsamples = 2\nvalue = [1, 1]"] ;
401 -> 403 ;
404 [label="gini = 0.0\nsamples = 1\nvalue = [0, 1]"] ;
403 -> 404 ;
405 [label="gini = 0.0\nsamples = 1\nvalue = [1, 0]"] ;
403 -> 405 ;
406 [label="gini = 0.0\nsamples = 4\nvalue = [4, 0]"] ;
382 -> 406 ;
407 [label="X[3] <= -0.4754\ngini = 0.1049\nsamples = 18\nvalue = [1, 17]"] ;
381 -> 407 ;
408 [label="X[2] <= -0.6314\ngini = 0.4444\nsamples = 3\nvalue = [1, 2]"] ;
407 -> 408 ;
409 [label="gini = 0.0\nsamples = 1\nvalue = [1, 0]"] ;
408 -> 409 ;
410 [label="gini = 0.0\nsamples = 2\nvalue = [0, 2]"] ;
408 -> 410 ;
411 [label="gini = 0.0\nsamples = 15\nvalue = [0, 15]"] ;
407 -> 411 ;
412 [label="gini = 0.0\nsamples = 1\nvalue = [1, 0]"] ;
288 -> 412 ;
413 [label="gini = 0.0\nsamples = 1\nvalue = [1, 0]"] ;
287 -> 413 ;
414 [label="gini = 0.0\nsamples = 2\nvalue = [2, 0]"] ;
286 -> 414 ;
415 [label="X[2] <= -0.1532\ngini = 0.4444\nsamples = 6\nvalue = [4, 2]"] ;
285 -> 415 ;
416 [label="gini = 0.0\nsamples = 4\nvalue = [4, 0]"] ;
415 -> 416 ;
417 [label="gini = 0.0\nsamples = 2\nvalue = [0, 2]"] ;
415 -> 417 ;
418 [label="X[3] <= 0.8841\ngini = 0.1354\nsamples = 178\nvalue = [13, 165]"] ;
284 -> 418 ;
419 [label="X[125] <= 20.891\ngini = 0.1178\nsamples = 175\nvalue = [11, 164]"] ;
418 -> 419 ;
420 [label="X[2] <= -0.6784\ngini = 0.1095\nsamples = 172\nvalue = [10, 162]"] ;
419 -> 420 ;
421 [label="X[2] <= -0.6794\ngini = 0.2975\nsamples = 11\nvalue = [2, 9]"] ;
420 -> 421 ;
422 [label="gini = 0.0\nsamples = 8\nvalue = [0, 8]"] ;
421 -> 422 ;
423 [label="X[3] <= -0.4641\ngini = 0.4444\nsamples = 3\nvalue = [2, 1]"] ;
421 -> 423 ;
424 [label="gini = 0.0\nsamples = 2\nvalue = [2, 0]"] ;
423 -> 424 ;
425 [label="gini = 0.0\nsamples = 1\nvalue = [0, 1]"] ;
423 -> 425 ;
426 [label="X[149] <= 8.8604\ngini = 0.0944\nsamples = 161\nvalue = [8, 153]"] ;
420 -> 426 ;
427 [label="X[23] <= 6.3401\ngini = 0.0852\nsamples = 157\nvalue = [7, 150]"] ;
426 -> 427 ;
428 [label="X[91] <= 1.7378\ngini = 0.0754\nsamples = 153\nvalue = [6, 147]"] ;
427 -> 428 ;
429 [label="X[3] <= 0.8837\ngini = 0.0512\nsamples = 114\nvalue = [3, 111]"] ;
428 -> 429 ;
430 [label="X[1] <= -2.0778\ngini = 0.0377\nsamples = 104\nvalue = [2, 102]"] ;
429 -> 430 ;
431 [label="X[3] <= 0.6546\ngini = 0.0815\nsamples = 47\nvalue = [2, 45]"] ;
430 -> 431 ;
432 [label="X[2] <= 0.575\ngini = 0.1372\nsamples = 27\nvalue = [2, 25]"] ;
431 -> 432 ;
433 [label="X[2] <= -0.6648\ngini = 0.074\nsamples = 26\nvalue = [1, 25]"] ;
432 -> 433 ;
434 [label="gini = 0.0\nsamples = 14\nvalue = [0, 14]"] ;
433 -> 434 ;
435 [label="X[2] <= -0.6529\ngini = 0.1528\nsamples = 12\nvalue = [1, 11]"] ;
433 -> 435 ;
436 [label="gini = 0.0\nsamples = 1\nvalue = [1, 0]"] ;
435 -> 436 ;
437 [label="gini = 0.0\nsamples = 11\nvalue = [0, 11]"] ;
435 -> 437 ;
438 [label="gini = 0.0\nsamples = 1\nvalue = [1, 0]"] ;
432 -> 438 ;
439 [label="gini = 0.0\nsamples = 20\nvalue = [0, 20]"] ;
431 -> 439 ;
440 [label="gini = 0.0\nsamples = 57\nvalue = [0, 57]"] ;
430 -> 440 ;
441 [label="X[3] <= 0.8838\ngini = 0.18\nsamples = 10\nvalue = [1, 9]"] ;
429 -> 441 ;
442 [label="gini = 0.0\nsamples = 1\nvalue = [1, 0]"] ;
441 -> 442 ;
443 [label="gini = 0.0\nsamples = 9\nvalue = [0, 9]"] ;
441 -> 443 ;
444 [label="X[2] <= -0.326\ngini = 0.142\nsamples = 39\nvalue = [3, 36]"] ;
428 -> 444 ;
445 [label="X[2] <= -0.3645\ngini = 0.0997\nsamples = 38\nvalue = [2, 36]"] ;
444 -> 445 ;
446 [label="X[2] <= -0.3651\ngini = 0.3457\nsamples = 9\nvalue = [2, 7]"] ;
445 -> 446 ;
447 [label="X[1] <= -2.0778\ngini = 0.2188\nsamples = 8\nvalue = [1, 7]"] ;
446 -> 447 ;
448 [label="gini = 0.0\nsamples = 5\nvalue = [0, 5]"] ;
447 -> 448 ;
449 [label="X[2] <= -0.3714\ngini = 0.4444\nsamples = 3\nvalue = [1, 2]"] ;
447 -> 449 ;
450 [label="gini = 0.0\nsamples = 1\nvalue = [1, 0]"] ;
449 -> 450 ;
451 [label="gini = 0.0\nsamples = 2\nvalue = [0, 2]"] ;
449 -> 451 ;
452 [label="gini = 0.0\nsamples = 1\nvalue = [1, 0]"] ;
446 -> 452 ;
453 [label="gini = 0.0\nsamples = 29\nvalue = [0, 29]"] ;
445 -> 453 ;
454 [label="gini = 0.0\nsamples = 1\nvalue = [1, 0]"] ;
444 -> 454 ;
455 [label="X[2] <= 1.1458\ngini = 0.375\nsamples = 4\nvalue = [1, 3]"] ;
427 -> 455 ;
456 [label="gini = 0.0\nsamples = 3\nvalue = [0, 3]"] ;
455 -> 456 ;
457 [label="gini = 0.0\nsamples = 1\nvalue = [1, 0]"] ;
455 -> 457 ;
458 [label="X[3] <= 0.6225\ngini = 0.375\nsamples = 4\nvalue = [1, 3]"] ;
426 -> 458 ;
459 [label="X[2] <= -0.379\ngini = 0.5\nsamples = 2\nvalue = [1, 1]"] ;
458 -> 459 ;
460 [label="gini = 0.0\nsamples = 1\nvalue = [1, 0]"] ;
459 -> 460 ;
461 [label="gini = 0.0\nsamples = 1\nvalue = [0, 1]"] ;
459 -> 461 ;
462 [label="gini = 0.0\nsamples = 2\nvalue = [0, 2]"] ;
458 -> 462 ;
463 [label="X[3] <= 0.8779\ngini = 0.4444\nsamples = 3\nvalue = [1, 2]"] ;
419 -> 463 ;
464 [label="gini = 0.0\nsamples = 2\nvalue = [0, 2]"] ;
463 -> 464 ;
465 [label="gini = 0.0\nsamples = 1\nvalue = [1, 0]"] ;
463 -> 465 ;
466 [label="X[1] <= -2.0778\ngini = 0.4444\nsamples = 3\nvalue = [2, 1]"] ;
418 -> 466 ;
467 [label="gini = 0.0\nsamples = 2\nvalue = [2, 0]"] ;
466 -> 467 ;
468 [label="gini = 0.0\nsamples = 1\nvalue = [0, 1]"] ;
466 -> 468 ;
469 [label="X[425] <= 47.5189\ngini = 0.174\nsamples = 2431\nvalue = [234, 2197]"] ;
283 -> 469 ;
470 [label="X[149] <= 8.8604\ngini = 0.1734\nsamples = 2430\nvalue = [233, 2197]"] ;
469 -> 470 ;
471 [label="X[3] <= -0.4779\ngini = 0.1716\nsamples = 2416\nvalue = [229, 2187]"] ;
470 -> 471 ;
472 [label="X[2] <= -0.1517\ngini = 0.1499\nsamples = 1213\nvalue = [99, 1114]"] ;
471 -> 472 ;
473 [label="X[3] <= -0.4808\ngini = 0.1477\nsamples = 1208\nvalue = [97, 1111]"] ;
472 -> 473 ;
474 [label="X[3] <= -0.4808\ngini = 0.1593\nsamples = 1043\nvalue = [91, 952]"] ;
473 -> 474 ;
475 [label="X[2] <= -0.16\ngini = 0.1578\nsamples = 1042\nvalue = [90, 952]"] ;
474 -> 475 ;
476 [label="X[2] <= -0.1601\ngini = 0.1628\nsamples = 1007\nvalue = [90, 917]"] ;
475 -> 476 ;
477 [label="X[0] <= -0.2541\ngini = 0.1613\nsamples = 1006\nvalue = [89, 917]"] ;
476 -> 477 ;
478 [label="X[3] <= -0.5858\ngini = 0.1902\nsamples = 404\nvalue = [43, 361]"] ;
477 -> 478 ;
479 [label="X[3] <= -0.5859\ngini = 0.2524\nsamples = 162\nvalue = [24, 138]"] ;
478 -> 479 ;
480 [label="X[172] <= 2.4742\ngini = 0.2384\nsamples = 159\nvalue = [22, 137]"] ;
479 -> 480 ;
481 [label="X[2] <= -0.1603\ngini = 0.2305\nsamples = 158\nvalue = [21, 137]"] ;
480 -> 481 ;
482 [label="X[2] <= -0.1865\ngini = 0.2223\nsamples = 157\nvalue = [20, 137]"] ;
481 -> 482 ;
483 [label="gini = 0.0\nsamples = 29\nvalue = [0, 29]"] ;
482 -> 483 ;
484 [label="X[2] <= -0.1857\ngini = 0.2637\nsamples = 128\nvalue = [20, 108]"] ;
482 -> 484 ;
485 [label="X[1] <= -2.0778\ngini = 0.4444\nsamples = 6\nvalue = [4, 2]"] ;
484 -> 485 ;
486 [label="gini = 0.0\nsamples = 1\nvalue = [0, 1]"] ;
485 -> 486 ;
487 [label="X[3] <= -0.5867\ngini = 0.32\nsamples = 5\nvalue = [4, 1]"] ;
485 -> 487 ;
488 [label="gini = 0.0\nsamples = 3\nvalue = [3, 0]"] ;
487 -> 488 ;
489 [label="X[3] <= -0.5864\ngini = 0.5\nsamples = 2\nvalue = [1, 1]"] ;
487 -> 489 ;
490 [label="gini = 0.0\nsamples = 1\nvalue = [0, 1]"] ;
489 -> 490 ;
491 [label="gini = 0.0\nsamples = 1\nvalue = [1, 0]"] ;
489 -> 491 ;
492 [label="X[3] <= -0.589\ngini = 0.2279\nsamples = 122\nvalue = [16, 106]"] ;
484 -> 492 ;
493 [label="X[2] <= -0.1752\ngini = 0.1023\nsamples = 37\nvalue = [2, 35]"] ;
492 -> 493 ;
494 [label="X[2] <= -0.1776\ngini = 0.2188\nsamples = 16\nvalue = [2, 14]"] ;
493 -> 494 ;
495 [label="gini = 0.0\nsamples = 14\nvalue = [0, 14]"] ;
494 -> 495 ;
496 [label="gini = 0.0\nsamples = 2\nvalue = [2, 0]"] ;
494 -> 496 ;
497 [label="gini = 0.0\nsamples = 21\nvalue = [0, 21]"] ;
493 -> 497 ;
498 [label="X[3] <= -0.5883\ngini = 0.2752\nsamples = 85\nvalue = [14, 71]"] ;
492 -> 498 ;
499 [label="X[0] <= -0.2746\ngini = 0.5\nsamples = 10\nvalue = [5, 5]"] ;
498 -> 499 ;
500 [label="gini = 0.0\nsamples = 3\nvalue = [0, 3]"] ;
499 -> 500 ;
501 [label="X[2] <= -0.1662\ngini = 0.4082\nsamples = 7\nvalue = [5, 2]"] ;
499 -> 501 ;
502 [label="gini = 0.0\nsamples = 4\nvalue = [4, 0]"] ;
501 -> 502 ;
503 [label="X[3] <= -0.5888\ngini = 0.4444\nsamples = 3\nvalue = [1, 2]"] ;
501 -> 503 ;
504 [label="gini = 0.0\nsamples = 1\nvalue = [1, 0]"] ;
503 -> 504 ;
505 [label="gini = 0.0\nsamples = 2\nvalue = [0, 2]"] ;
503 -> 505 ;
506 [label="X[0] <= -0.2746\ngini = 0.2112\nsamples = 75\nvalue = [9, 66]"] ;
498 -> 506 ;
507 [label="X[2] <= -0.1721\ngini = 0.3367\nsamples = 28\nvalue = [6, 22]"] ;
506 -> 507 ;
508 [label="X[2] <= -0.1734\ngini = 0.3856\nsamples = 23\nvalue = [6, 17]"] ;
507 -> 508 ;
509 [label="X[3] <= -0.5865\ngini = 0.3084\nsamples = 21\nvalue = [4, 17]"] ;
508 -> 509 ;
510 [label="X[2] <= -0.1777\ngini = 0.1244\nsamples = 15\nvalue = [1, 14]"] ;
509 -> 510 ;
511 [label="gini = 0.0\nsamples = 11\nvalue = [0, 11]"] ;
510 -> 511 ;
512 [label="X[3] <= -0.5874\ngini = 0.375\nsamples = 4\nvalue = [1, 3]"] ;
510 -> 512 ;
513 [label="gini = 0.0\nsamples = 3\nvalue = [0, 3]"] ;
512 -> 513 ;
514 [label="gini = 0.0\nsamples = 1\nvalue = [1, 0]"] ;
512 -> 514 ;
515 [label="X[3] <= -0.5861\ngini = 0.5\nsamples = 6\nvalue = [3, 3]"] ;
509 -> 515 ;
516 [label="X[2] <= -0.1826\ngini = 0.375\nsamples = 4\nvalue = [3, 1]"] ;
515 -> 516 ;
517 [label="gini = 0.0\nsamples = 1\nvalue = [0, 1]"] ;
516 -> 517 ;
518 [label="gini = 0.0\nsamples = 3\nvalue = [3, 0]"] ;
516 -> 518 ;
519 [label="gini = 0.0\nsamples = 2\nvalue = [0, 2]"] ;
515 -> 519 ;
520 [label="gini = 0.0\nsamples = 2\nvalue = [2, 0]"] ;
508 -> 520 ;
521 [label="gini = 0.0\nsamples = 5\nvalue = [0, 5]"] ;
507 -> 521 ;
522 [label="X[1] <= -2.0778\ngini = 0.1195\nsamples = 47\nvalue = [3, 44]"] ;
506 -> 522 ;
523 [label="X[285] <= 4.9679\ngini = 0.2975\nsamples = 11\nvalue = [2, 9]"] ;
522 -> 523 ;
524 [label="X[0] <= -0.2643\ngini = 0.1975\nsamples = 9\nvalue = [1, 8]"] ;
523 -> 524 ;
525 [label="X[2] <= -0.1817\ngini = 0.5\nsamples = 2\nvalue = [1, 1]"] ;
524 -> 525 ;
526 [label="gini = 0.0\nsamples = 1\nvalue = [1, 0]"] ;
525 -> 526 ;
527 [label="gini = 0.0\nsamples = 1\nvalue = [0, 1]"] ;
525 -> 527 ;
528 [label="gini = 0.0\nsamples = 7\nvalue = [0, 7]"] ;
524 -> 528 ;
529 [label="X[3] <= -0.587\ngini = 0.5\nsamples = 2\nvalue = [1, 1]"] ;
523 -> 529 ;
530 [label="gini = 0.0\nsamples = 1\nvalue = [1, 0]"] ;
529 -> 530 ;
531 [label="gini = 0.0\nsamples = 1\nvalue = [0, 1]"] ;
529 -> 531 ;
532 [label="X[3] <= -0.5874\ngini = 0.054\nsamples = 36\nvalue = [1, 35]"] ;
522 -> 532 ;
533 [label="X[3] <= -0.5876\ngini = 0.18\nsamples = 10\nvalue = [1, 9]"] ;
532 -> 533 ;
534 [label="gini = 0.0\nsamples = 9\nvalue = [0, 9]"] ;
533 -> 534 ;
535 [label="gini = 0.0\nsamples = 1\nvalue = [1, 0]"] ;
533 -> 535 ;
536 [label="gini = 0.0\nsamples = 26\nvalue = [0, 26]"] ;
532 -> 536 ;
537 [label="gini = 0.0\nsamples = 1\nvalue = [1, 0]"] ;
481 -> 537 ;
538 [label="gini = 0.0\nsamples = 1\nvalue = [1, 0]"] ;
480 -> 538 ;
539 [label="X[2] <= -0.1954\ngini = 0.4444\nsamples = 3\nvalue = [2, 1]"] ;
479 -> 539 ;
540 [label="gini = 0.0\nsamples = 1\nvalue = [0, 1]"] ;
539 -> 540 ;
541 [label="gini = 0.0\nsamples = 2\nvalue = [2, 0]"] ;
539 -> 541 ;
542 [label="X[3] <= -0.5846\ngini = 0.1447\nsamples = 242\nvalue = [19, 223]"] ;
478 -> 542 ;
543 [label="gini = 0.0\nsamples = 48\nvalue = [0, 48]"] ;
542 -> 543 ;
544 [label="X[3] <= -0.5846\ngini = 0.1767\nsamples = 194\nvalue = [19, 175]"] ;
542 -> 544 ;
545 [label="gini = 0.0\nsamples = 1\nvalue = [1, 0]"] ;
544 -> 545 ;
546 [label="X[3] <= -0.5845\ngini = 0.1691\nsamples = 193\nvalue = [18, 175]"] ;
544 -> 546 ;
547 [label="X[2] <= -0.1896\ngini = 0.3967\nsamples = 11\nvalue = [3, 8]"] ;
546 -> 547 ;
548 [label="X[2] <= -0.2025\ngini = 0.48\nsamples = 5\nvalue = [3, 2]"] ;
547 -> 548 ;
549 [label="gini = 0.0\nsamples = 2\nvalue = [0, 2]"] ;
548 -> 549 ;
550 [label="gini = 0.0\nsamples = 3\nvalue = [3, 0]"] ;
548 -> 550 ;
551 [label="gini = 0.0\nsamples = 6\nvalue = [0, 6]"] ;
547 -> 551 ;
552 [label="X[72] <= 12.3798\ngini = 0.1512\nsamples = 182\nvalue = [15, 167]"] ;
546 -> 552 ;
553 [label="X[3] <= -0.4821\ngini = 0.1435\nsamples = 180\nvalue = [14, 166]"] ;
552 -> 553 ;
554 [label="X[3] <= -0.4867\ngini = 0.1172\nsamples = 160\nvalue = [10, 150]"] ;
553 -> 554 ;
555 [label="X[3] <= -0.4868\ngini = 0.1623\nsamples = 101\nvalue = [9, 92]"] ;
554 -> 555 ;
556 [label="X[3] <= -0.5832\ngini = 0.1327\nsamples = 98\nvalue = [7, 91]"] ;
555 -> 556 ;
557 [label="gini = 0.0\nsamples = 32\nvalue = [0, 32]"] ;
556 -> 557 ;
558 [label="X[3] <= -0.5827\ngini = 0.1896\nsamples = 66\nvalue = [7, 59]"] ;
556 -> 558 ;
559 [label="X[3] <= -0.5828\ngini = 0.5\nsamples = 6\nvalue = [3, 3]"] ;
558 -> 559 ;
560 [label="X[3] <= -0.5831\ngini = 0.375\nsamples = 4\nvalue = [1, 3]"] ;
559 -> 560 ;
561 [label="gini = 0.0\nsamples = 1\nvalue = [1, 0]"] ;
560 -> 561 ;
562 [label="gini = 0.0\nsamples = 3\nvalue = [0, 3]"] ;
560 -> 562 ;
563 [label="gini = 0.0\nsamples = 2\nvalue = [2, 0]"] ;
559 -> 563 ;
564 [label="X[2] <= -0.1918\ngini = 0.1244\nsamples = 60\nvalue = [4, 56]"] ;
558 -> 564 ;
565 [label="X[2] <= -0.1921\ngini = 0.1928\nsamples = 37\nvalue = [4, 33]"] ;
564 -> 565 ;
566 [label="X[163] <= 6.3498\ngini = 0.1528\nsamples = 36\nvalue = [3, 33]"] ;
565 -> 566 ;
567 [label="X[3] <= -0.5794\ngini = 0.1172\nsamples = 32\nvalue = [2, 30]"] ;
566 -> 567 ;
568 [label="X[3] <= -0.5795\ngini = 0.2188\nsamples = 16\nvalue = [2, 14]"] ;
567 -> 568 ;
569 [label="X[2] <= -0.1971\ngini = 0.1244\nsamples = 15\nvalue = [1, 14]"] ;
568 -> 569 ;
570 [label="X[2] <= -0.1974\ngini = 0.375\nsamples = 4\nvalue = [1, 3]"] ;
569 -> 570 ;
571 [label="gini = 0.0\nsamples = 3\nvalue = [0, 3]"] ;
570 -> 571 ;
572 [label="gini = 0.0\nsamples = 1\nvalue = [1, 0]"] ;
570 -> 572 ;
573 [label="gini = 0.0\nsamples = 11\nvalue = [0, 11]"] ;
569 -> 573 ;
574 [label="gini = 0.0\nsamples = 1\nvalue = [1, 0]"] ;
568 -> 574 ;
575 [label="gini = 0.0\nsamples = 16\nvalue = [0, 16]"] ;
567 -> 575 ;
576 [label="X[2] <= -0.6655\ngini = 0.375\nsamples = 4\nvalue = [1, 3]"] ;
566 -> 576 ;
577 [label="gini = 0.0\nsamples = 3\nvalue = [0, 3]"] ;
576 -> 577 ;
578 [label="gini = 0.0\nsamples = 1\nvalue = [1, 0]"] ;
576 -> 578 ;
579 [label="gini = 0.0\nsamples = 1\nvalue = [1, 0]"] ;
565 -> 579 ;
580 [label="gini = 0.0\nsamples = 23\nvalue = [0, 23]"] ;
564 -> 580 ;
581 [label="X[1] <= -2.0778\ngini = 0.4444\nsamples = 3\nvalue = [2, 1]"] ;
555 -> 581 ;
582 [label="gini = 0.0\nsamples = 2\nvalue = [2, 0]"] ;
581 -> 582 ;
583 [label="gini = 0.0\nsamples = 1\nvalue = [0, 1]"] ;
581 -> 583 ;
584 [label="X[298] <= 4.4945\ngini = 0.0333\nsamples = 59\nvalue = [1, 58]"] ;
554 -> 584 ;
585 [label="gini = 0.0\nsamples = 41\nvalue = [0, 41]"] ;
584 -> 585 ;
586 [label="X[3] <= -0.4835\ngini = 0.1049\nsamples = 18\nvalue = [1, 17]"] ;
584 -> 586 ;
587 [label="X[2] <= -0.6424\ngini = 0.4444\nsamples = 3\nvalue = [1, 2]"] ;
586 -> 587 ;
588 [label="gini = 0.0\nsamples = 2\nvalue = [0, 2]"] ;
587 -> 588 ;
589 [label="gini = 0.0\nsamples = 1\nvalue = [1, 0]"] ;
587 -> 589 ;
590 [label="gini = 0.0\nsamples = 15\nvalue = [0, 15]"] ;
586 -> 590 ;
591 [label="X[2] <= -0.6322\ngini = 0.32\nsamples = 20\nvalue = [4, 16]"] ;
553 -> 591 ;
592 [label="X[3] <= -0.4821\ngini = 0.1107\nsamples = 17\nvalue = [1, 16]"] ;
591 -> 592 ;
593 [label="gini = 0.0\nsamples = 1\nvalue = [1, 0]"] ;
592 -> 593 ;
594 [label="gini = 0.0\nsamples = 16\nvalue = [0, 16]"] ;
592 -> 594 ;
595 [label="gini = 0.0\nsamples = 3\nvalue = [3, 0]"] ;
591 -> 595 ;
596 [label="X[2] <= -0.674\ngini = 0.5\nsamples = 2\nvalue = [1, 1]"] ;
552 -> 596 ;
597 [label="gini = 0.0\nsamples = 1\nvalue = [0, 1]"] ;
596 -> 597 ;
598 [label="gini = 0.0\nsamples = 1\nvalue = [1, 0]"] ;
596 -> 598 ;
599 [label="X[2] <= -0.1602\ngini = 0.1411\nsamples = 602\nvalue = [46, 556]"] ;
477 -> 599 ;
600 [label="X[3] <= -0.5865\ngini = 0.1385\nsamples = 601\nvalue = [45, 556]"] ;
599 -> 600 ;
601 [label="X[3] <= -0.5896\ngini = 0.0832\nsamples = 184\nvalue = [8, 176]"] ;
600 -> 601 ;
602 [label="X[3] <= -0.5896\ngini = 0.1709\nsamples = 53\nvalue = [5, 48]"] ;
601 -> 602 ;
603 [label="X[2] <= -0.1939\ngini = 0.142\nsamples = 52\nvalue = [4, 48]"] ;
602 -> 603 ;
604 [label="X[0] <= -0.2028\ngini = 0.5\nsamples = 2\nvalue = [1, 1]"] ;
603 -> 604 ;
605 [label="gini = 0.0\nsamples = 1\nvalue = [0, 1]"] ;
604 -> 605 ;
606 [label="gini = 0.0\nsamples = 1\nvalue = [1, 0]"] ;
604 -> 606 ;
607 [label="X[2] <= -0.1638\ngini = 0.1128\nsamples = 50\nvalue = [3, 47]"] ;
603 -> 607 ;
608 [label="X[0] <= -0.0181\ngini = 0.0799\nsamples = 48\nvalue = [2, 46]"] ;
607 -> 608 ;
609 [label="X[2] <= -0.1758\ngini = 0.0454\nsamples = 43\nvalue = [1, 42]"] ;
608 -> 609 ;
610 [label="gini = 0.0\nsamples = 27\nvalue = [0, 27]"] ;
609 -> 610 ;
611 [label="X[2] <= -0.175\ngini = 0.1172\nsamples = 16\nvalue = [1, 15]"] ;
609 -> 611 ;
612 [label="gini = 0.0\nsamples = 1\nvalue = [1, 0]"] ;
611 -> 612 ;
613 [label="gini = 0.0\nsamples = 15\nvalue = [0, 15]"] ;
611 -> 613 ;
614 [label="X[0] <= -0.0027\ngini = 0.32\nsamples = 5\nvalue = [1, 4]"] ;
608 -> 614 ;
615 [label="gini = 0.0\nsamples = 1\nvalue = [1, 0]"] ;
614 -> 615 ;
616 [label="gini = 0.0\nsamples = 4\nvalue = [0, 4]"] ;
614 -> 616 ;
617 [label="X[0] <= -0.1668\ngini = 0.5\nsamples = 2\nvalue = [1, 1]"] ;
607 -> 617 ;
618 [label="gini = 0.0\nsamples = 1\nvalue = [1, 0]"] ;
617 -> 618 ;
619 [label="gini = 0.0\nsamples = 1\nvalue = [0, 1]"] ;
617 -> 619 ;
620 [label="gini = 0.0\nsamples = 1\nvalue = [1, 0]"] ;
602 -> 620 ;
621 [label="X[0] <= 0.0538\ngini = 0.0448\nsamples = 131\nvalue = [3, 128]"] ;
601 -> 621 ;
622 [label="X[0] <= -0.2233\ngini = 0.0315\nsamples = 125\nvalue = [2, 123]"] ;
621 -> 622 ;
623 [label="X[0] <= -0.2335\ngini = 0.0887\nsamples = 43\nvalue = [2, 41]"] ;
622 -> 623 ;
624 [label="gini = 0.0\nsamples = 32\nvalue = [0, 32]"] ;
623 -> 624 ;
625 [label="X[3] <= -0.5879\ngini = 0.2975\nsamples = 11\nvalue = [2, 9]"] ;
623 -> 625 ;
626 [label="gini = 0.0\nsamples = 7\nvalue = [0, 7]"] ;
625 -> 626 ;
627 [label="X[3] <= -0.5877\ngini = 0.5\nsamples = 4\nvalue = [2, 2]"] ;
625 -> 627 ;
628 [label="gini = 0.0\nsamples = 2\nvalue = [2, 0]"] ;
627 -> 628 ;
629 [label="gini = 0.0\nsamples = 2\nvalue = [0, 2]"] ;
627 -> 629 ;
630 [label="gini = 0.0\nsamples = 82\nvalue = [0, 82]"] ;
622 -> 630 ;
631 [label="X[3] <= -0.5881\ngini = 0.2778\nsamples = 6\nvalue = [1, 5]"] ;
621 -> 631 ;
632 [label="gini = 0.0\nsamples = 5\nvalue = [0, 5]"] ;
631 -> 632 ;
633 [label="gini = 0.0\nsamples = 1\nvalue = [1, 0]"] ;
631 -> 633 ;
634 [label="X[3] <= -0.5865\ngini = 0.1617\nsamples = 417\nvalue = [37, 380]"] ;
600 -> 634 ;
635 [label="gini = 0.0\nsamples = 1\nvalue = [1, 0]"] ;
634 -> 635 ;
636 [label="X[2] <= -0.1857\ngini = 0.1581\nsamples = 416\nvalue = [36, 380]"] ;
634 -> 636 ;
637 [label="X[201] <= 0.659\ngini = 0.1253\nsamples = 268\nvalue = [18, 250]"] ;
636 -> 637 ;
638 [label="X[2] <= -0.1916\ngini = 0.1508\nsamples = 207\nvalue = [17, 190]"] ;
637 -> 638 ;
639 [label="X[3] <= -0.584\ngini = 0.1369\nsamples = 203\nvalue = [15, 188]"] ;
638 -> 639 ;
640 [label="X[3] <= -0.584\ngini = 0.2975\nsamples = 11\nvalue = [2, 9]"] ;
639 -> 640 ;
641 [label="X[2] <= -0.2035\ngini = 0.18\nsamples = 10\nvalue = [1, 9]"] ;
640 -> 641 ;
642 [label="X[2] <= -0.2036\ngini = 0.32\nsamples = 5\nvalue = [1, 4]"] ;
641 -> 642 ;
643 [label="gini = 0.0\nsamples = 4\nvalue = [0, 4]"] ;
642 -> 643 ;
644 [label="gini = 0.0\nsamples = 1\nvalue = [1, 0]"] ;
642 -> 644 ;
645 [label="gini = 0.0\nsamples = 5\nvalue = [0, 5]"] ;
641 -> 645 ;
646 [label="gini = 0.0\nsamples = 1\nvalue = [1, 0]"] ;
640 -> 646 ;
647 [label="X[0] <= -0.1515\ngini = 0.1262\nsamples = 192\nvalue = [13, 179]"] ;
639 -> 647 ;
648 [label="X[0] <= -0.2335\ngini = 0.088\nsamples = 130\nvalue = [6, 124]"] ;
647 -> 648 ;
649 [label="X[298] <= 4.4945\ngini = 0.1653\nsamples = 44\nvalue = [4, 40]"] ;
648 -> 649 ;
650 [label="X[2] <= -0.662\ngini = 0.1023\nsamples = 37\nvalue = [2, 35]"] ;
649 -> 650 ;
651 [label="X[2] <= -0.6635\ngini = 0.32\nsamples = 10\nvalue = [2, 8]"] ;
650 -> 651 ;
652 [label="gini = 0.0\nsamples = 8\nvalue = [0, 8]"] ;
651 -> 652 ;
653 [label="gini = 0.0\nsamples = 2\nvalue = [2, 0]"] ;
651 -> 653 ;
654 [label="gini = 0.0\nsamples = 27\nvalue = [0, 27]"] ;
650 -> 654 ;
655 [label="X[2] <= -0.6331\ngini = 0.4082\nsamples = 7\nvalue = [2, 5]"] ;
649 -> 655 ;
656 [label="X[3] <= -0.4835\ngini = 0.2778\nsamples = 6\nvalue = [1, 5]"] ;
655 -> 656 ;
657 [label="X[2] <= -0.6453\ngini = 0.5\nsamples = 2\nvalue = [1, 1]"] ;
656 -> 657 ;
658 [label="gini = 0.0\nsamples = 1\nvalue = [0, 1]"] ;
657 -> 658 ;
659 [label="gini = 0.0\nsamples = 1\nvalue = [1, 0]"] ;
657 -> 659 ;
660 [label="gini = 0.0\nsamples = 4\nvalue = [0, 4]"] ;
656 -> 660 ;
661 [label="gini = 0.0\nsamples = 1\nvalue = [1, 0]"] ;
655 -> 661 ;
662 [label="X[3] <= -0.4815\ngini = 0.0454\nsamples = 86\nvalue = [2, 84]"] ;
648 -> 662 ;
663 [label="X[2] <= -0.1964\ngini = 0.0241\nsamples = 82\nvalue = [1, 81]"] ;
662 -> 663 ;
664 [label="gini = 0.0\nsamples = 72\nvalue = [0, 72]"] ;
663 -> 664 ;
665 [label="X[3] <= -0.5803\ngini = 0.18\nsamples = 10\nvalue = [1, 9]"] ;
663 -> 665 ;
666 [label="gini = 0.0\nsamples = 9\nvalue = [0, 9]"] ;
665 -> 666 ;
667 [label="gini = 0.0\nsamples = 1\nvalue = [1, 0]"] ;
665 -> 667 ;
668 [label="X[2] <= -0.6329\ngini = 0.375\nsamples = 4\nvalue = [1, 3]"] ;
662 -> 668 ;
669 [label="gini = 0.0\nsamples = 3\nvalue = [0, 3]"] ;
668 -> 669 ;
670 [label="gini = 0.0\nsamples = 1\nvalue = [1, 0]"] ;
668 -> 670 ;
671 [label="X[387] <= 13.598\ngini = 0.2003\nsamples = 62\nvalue = [7, 55]"] ;
647 -> 671 ;
672 [label="X[0] <= -0.0386\ngini = 0.1774\nsamples = 61\nvalue = [6, 55]"] ;
671 -> 672 ;
673 [label="X[0] <= -0.0488\ngini = 0.2499\nsamples = 41\nvalue = [6, 35]"] ;
672 -> 673 ;
674 [label="X[2] <= -0.6661\ngini = 0.2188\nsamples = 40\nvalue = [5, 35]"] ;
673 -> 674 ;
675 [label="X[3] <= -0.4876\ngini = 0.4082\nsamples = 7\nvalue = [2, 5]"] ;
674 -> 675 ;
676 [label="gini = 0.0\nsamples = 4\nvalue = [0, 4]"] ;
675 -> 676 ;
677 [label="X[1] <= -2.0778\ngini = 0.4444\nsamples = 3\nvalue = [2, 1]"] ;
675 -> 677 ;
678 [label="gini = 0.0\nsamples = 1\nvalue = [0, 1]"] ;
677 -> 678 ;
679 [label="gini = 0.0\nsamples = 2\nvalue = [2, 0]"] ;
677 -> 679 ;
680 [label="X[2] <= -0.631\ngini = 0.1653\nsamples = 33\nvalue = [3, 30]"] ;
674 -> 680 ;
681 [label="gini = 0.0\nsamples = 18\nvalue = [0, 18]"] ;
680 -> 681 ;
682 [label="X[2] <= -0.6284\ngini = 0.32\nsamples = 15\nvalue = [3, 12]"] ;
680 -> 682 ;
683 [label="gini = 0.0\nsamples = 1\nvalue = [1, 0]"] ;
682 -> 683 ;
684 [label="X[0] <= -0.095\ngini = 0.2449\nsamples = 14\nvalue = [2, 12]"] ;
682 -> 684 ;
685 [label="gini = 0.0\nsamples = 8\nvalue = [0, 8]"] ;
684 -> 685 ;
686 [label="X[3] <= -0.5785\ngini = 0.4444\nsamples = 6\nvalue = [2, 4]"] ;
684 -> 686 ;
687 [label="X[2] <= -0.1928\ngini = 0.4444\nsamples = 3\nvalue = [2, 1]"] ;
686 -> 687 ;
688 [label="gini = 0.0\nsamples = 2\nvalue = [2, 0]"] ;
687 -> 688 ;
689 [label="gini = 0.0\nsamples = 1\nvalue = [0, 1]"] ;
687 -> 689 ;
690 [label="gini = 0.0\nsamples = 3\nvalue = [0, 3]"] ;
686 -> 690 ;
691 [label="gini = 0.0\nsamples = 1\nvalue = [1, 0]"] ;
673 -> 691 ;
692 [label="gini = 0.0\nsamples = 20\nvalue = [0, 20]"] ;
672 -> 692 ;
693 [label="gini = 0.0\nsamples = 1\nvalue = [1, 0]"] ;
671 -> 693 ;
694 [label="X[2] <= -0.1911\ngini = 0.5\nsamples = 4\nvalue = [2, 2]"] ;
638 -> 694 ;
695 [label="gini = 0.0\nsamples = 2\nvalue = [2, 0]"] ;
694 -> 695 ;
696 [label="gini = 0.0\nsamples = 2\nvalue = [0, 2]"] ;
694 -> 696 ;
697 [label="X[2] <= -0.1962\ngini = 0.0322\nsamples = 61\nvalue = [1, 60]"] ;
637 -> 697 ;
698 [label="X[2] <= -0.1962\ngini = 0.0799\nsamples = 24\nvalue = [1, 23]"] ;
697 -> 698 ;
699 [label="gini = 0.0\nsamples = 23\nvalue = [0, 23]"] ;
698 -> 699 ;
700 [label="gini = 0.0\nsamples = 1\nvalue = [1, 0]"] ;
698 -> 700 ;
701 [label="gini = 0.0\nsamples = 37\nvalue = [0, 37]"] ;
697 -> 701 ;
702 [label="X[2] <= -0.1856\ngini = 0.2137\nsamples = 148\nvalue = [18, 130]"] ;
636 -> 702 ;
703 [label="gini = 0.0\nsamples = 2\nvalue = [2, 0]"] ;
702 -> 703 ;
704 [label="X[3] <= -0.5826\ngini = 0.1952\nsamples = 146\nvalue = [16, 130]"] ;
702 -> 704 ;
705 [label="X[2] <= -0.1757\ngini = 0.1729\nsamples = 136\nvalue = [13, 123]"] ;
704 -> 705 ;
706 [label="X[2] <= -0.1791\ngini = 0.2342\nsamples = 96\nvalue = [13, 83]"] ;
705 -> 706 ;
707 [label="X[0] <= -0.0386\ngini = 0.1528\nsamples = 72\nvalue = [6, 66]"] ;
706 -> 707 ;
708 [label="X[3] <= -0.5865\ngini = 0.1155\nsamples = 65\nvalue = [4, 61]"] ;
707 -> 708 ;
709 [label="X[0] <= -0.1668\ngini = 0.4444\nsamples = 3\nvalue = [1, 2]"] ;
708 -> 709 ;
710 [label="gini = 0.0\nsamples = 2\nvalue = [0, 2]"] ;
709 -> 710 ;
711 [label="gini = 0.0\nsamples = 1\nvalue = [1, 0]"] ;
709 -> 711 ;
712 [label="X[2] <= -0.182\ngini = 0.0921\nsamples = 62\nvalue = [3, 59]"] ;
708 -> 712 ;
713 [label="X[2] <= -0.1821\ngini = 0.142\nsamples = 39\nvalue = [3, 36]"] ;
712 -> 713 ;
714 [label="X[3] <= -0.5851\ngini = 0.0997\nsamples = 38\nvalue = [2, 36]"] ;
713 -> 714 ;
715 [label="X[3] <= -0.5851\ngini = 0.1528\nsamples = 24\nvalue = [2, 22]"] ;
714 -> 715 ;
716 [label="X[0] <= -0.213\ngini = 0.0832\nsamples = 23\nvalue = [1, 22]"] ;
715 -> 716 ;
717 [label="X[0] <= -0.2233\ngini = 0.2778\nsamples = 6\nvalue = [1, 5]"] ;
716 -> 717 ;
718 [label="gini = 0.0\nsamples = 5\nvalue = [0, 5]"] ;
717 -> 718 ;
719 [label="gini = 0.0\nsamples = 1\nvalue = [1, 0]"] ;
717 -> 719 ;
720 [label="gini = 0.0\nsamples = 17\nvalue = [0, 17]"] ;
716 -> 720 ;
721 [label="gini = 0.0\nsamples = 1\nvalue = [1, 0]"] ;
715 -> 721 ;
722 [label="gini = 0.0\nsamples = 14\nvalue = [0, 14]"] ;
714 -> 722 ;
723 [label="gini = 0.0\nsamples = 1\nvalue = [1, 0]"] ;
713 -> 723 ;
724 [label="gini = 0.0\nsamples = 23\nvalue = [0, 23]"] ;
712 -> 724 ;
725 [label="X[0] <= -0.0181\ngini = 0.4082\nsamples = 7\nvalue = [2, 5]"] ;
707 -> 725 ;
726 [label="gini = 0.0\nsamples = 2\nvalue = [2, 0]"] ;
725 -> 726 ;
727 [label="gini = 0.0\nsamples = 5\nvalue = [0, 5]"] ;
725 -> 727 ;
728 [label="X[3] <= -0.5853\ngini = 0.4132\nsamples = 24\nvalue = [7, 17]"] ;
706 -> 728 ;
729 [label="X[1] <= -2.0778\ngini = 0.497\nsamples = 13\nvalue = [7, 6]"] ;
728 -> 729 ;
730 [label="gini = 0.0\nsamples = 4\nvalue = [0, 4]"] ;
729 -> 730 ;
731 [label="X[3] <= -0.5859\ngini = 0.3457\nsamples = 9\nvalue = [7, 2]"] ;
729 -> 731 ;
732 [label="gini = 0.0\nsamples = 4\nvalue = [4, 0]"] ;
731 -> 732 ;
733 [label="X[0] <= -0.1668\ngini = 0.48\nsamples = 5\nvalue = [3, 2]"] ;
731 -> 733 ;
734 [label="gini = 0.0\nsamples = 2\nvalue = [2, 0]"] ;
733 -> 734 ;
735 [label="X[2] <= -0.1764\ngini = 0.4444\nsamples = 3\nvalue = [1, 2]"] ;
733 -> 735 ;
736 [label="gini = 0.0\nsamples = 2\nvalue = [0, 2]"] ;
735 -> 736 ;
737 [label="gini = 0.0\nsamples = 1\nvalue = [1, 0]"] ;
735 -> 737 ;
738 [label="gini = 0.0\nsamples = 11\nvalue = [0, 11]"] ;
728 -> 738 ;
739 [label="gini = 0.0\nsamples = 40\nvalue = [0, 40]"] ;
705 -> 739 ;
740 [label="X[0] <= -0.2233\ngini = 0.42\nsamples = 10\nvalue = [3, 7]"] ;
704 -> 740 ;
741 [label="gini = 0.0\nsamples = 4\nvalue = [0, 4]"] ;
740 -> 741 ;
742 [label="X[0] <= -0.2079\ngini = 0.5\nsamples = 6\nvalue = [3, 3]"] ;
740 -> 742 ;
743 [label="gini = 0.0\nsamples = 3\nvalue = [3, 0]"] ;
742 -> 743 ;
744 [label="gini = 0.0\nsamples = 3\nvalue = [0, 3]"] ;
742 -> 744 ;
745 [label="gini = 0.0\nsamples = 1\nvalue = [1, 0]"] ;
599 -> 745 ;
746 [label="gini = 0.0\nsamples = 1\nvalue = [1, 0]"] ;
476 -> 746 ;
747 [label="gini = 0.0\nsamples = 35\nvalue = [0, 35]"] ;
475 -> 747 ;
748 [label="gini = 0.0\nsamples = 1\nvalue = [1, 0]"] ;
474 -> 748 ;
749 [label="X[3] <= -0.4791\ngini = 0.0701\nsamples = 165\nvalue = [6, 159]"] ;
473 -> 749 ;
750 [label="gini = 0.0\nsamples = 71\nvalue = [0, 71]"] ;
749 -> 750 ;
751 [label="X[3] <= -0.4791\ngini = 0.1195\nsamples = 94\nvalue = [6, 88]"] ;
749 -> 751 ;
752 [label="gini = 0.0\nsamples = 1\nvalue = [1, 0]"] ;
751 -> 752 ;
753 [label="X[2] <= -0.6382\ngini = 0.1017\nsamples = 93\nvalue = [5, 88]"] ;
751 -> 753 ;
754 [label="X[2] <= -0.6388\ngini = 0.16\nsamples = 57\nvalue = [5, 52]"] ;
753 -> 754 ;
755 [label="X[2] <= -0.6571\ngini = 0.1327\nsamples = 56\nvalue = [4, 52]"] ;
754 -> 755 ;
756 [label="gini = 0.0\nsamples = 22\nvalue = [0, 22]"] ;
755 -> 756 ;
757 [label="X[2] <= -0.656\ngini = 0.2076\nsamples = 34\nvalue = [4, 30]"] ;
755 -> 757 ;
758 [label="gini = 0.0\nsamples = 1\nvalue = [1, 0]"] ;
757 -> 758 ;
759 [label="X[0] <= -0.1515\ngini = 0.1653\nsamples = 33\nvalue = [3, 30]"] ;
757 -> 759 ;
760 [label="X[3] <= -0.4789\ngini = 0.1244\nsamples = 30\nvalue = [2, 28]"] ;
759 -> 760 ;
761 [label="X[3] <= -0.479\ngini = 0.375\nsamples = 4\nvalue = [1, 3]"] ;
760 -> 761 ;
762 [label="gini = 0.0\nsamples = 3\nvalue = [0, 3]"] ;
761 -> 762 ;
763 [label="gini = 0.0\nsamples = 1\nvalue = [1, 0]"] ;
761 -> 763 ;
764 [label="X[0] <= -0.2643\ngini = 0.074\nsamples = 26\nvalue = [1, 25]"] ;
760 -> 764 ;
765 [label="X[3] <= -0.4783\ngini = 0.2188\nsamples = 8\nvalue = [1, 7]"] ;
764 -> 765 ;
766 [label="gini = 0.0\nsamples = 7\nvalue = [0, 7]"] ;
765 -> 766 ;
767 [label="gini = 0.0\nsamples = 1\nvalue = [1, 0]"] ;
765 -> 767 ;
768 [label="gini = 0.0\nsamples = 18\nvalue = [0, 18]"] ;
764 -> 768 ;
769 [label="X[2] <= -0.648\ngini = 0.4444\nsamples = 3\nvalue = [1, 2]"] ;
759 -> 769 ;
770 [label="gini = 0.0\nsamples = 1\nvalue = [0, 1]"] ;
769 -> 770 ;
771 [label="X[3] <= -0.4785\ngini = 0.5\nsamples = 2\nvalue = [1, 1]"] ;
769 -> 771 ;
772 [label="gini = 0.0\nsamples = 1\nvalue = [1, 0]"] ;
771 -> 772 ;
773 [label="gini = 0.0\nsamples = 1\nvalue = [0, 1]"] ;
771 -> 773 ;
774 [label="gini = 0.0\nsamples = 1\nvalue = [1, 0]"] ;
754 -> 774 ;
775 [label="gini = 0.0\nsamples = 36\nvalue = [0, 36]"] ;
753 -> 775 ;
776 [label="X[3] <= -0.5892\ngini = 0.48\nsamples = 5\nvalue = [2, 3]"] ;
472 -> 776 ;
777 [label="gini = 0.0\nsamples = 3\nvalue = [0, 3]"] ;
776 -> 777 ;
778 [label="gini = 0.0\nsamples = 2\nvalue = [2, 0]"] ;
776 -> 778 ;
779 [label="X[3] <= -0.4779\ngini = 0.1928\nsamples = 1203\nvalue = [130, 1073]"] ;
471 -> 779 ;
780 [label="X[2] <= -0.6481\ngini = 0.4444\nsamples = 3\nvalue = [2, 1]"] ;
779 -> 780 ;
781 [label="gini = 0.0\nsamples = 2\nvalue = [2, 0]"] ;
780 -> 781 ;
782 [label="gini = 0.0\nsamples = 1\nvalue = [0, 1]"] ;
780 -> 782 ;
783 [label="X[2] <= -0.6732\ngini = 0.1906\nsamples = 1200\nvalue = [128, 1072]"] ;
779 -> 783 ;
784 [label="X[2] <= -0.6774\ngini = 0.1117\nsamples = 219\nvalue = [13, 206]"] ;
783 -> 784 ;
785 [label="X[2] <= -0.6774\ngini = 0.156\nsamples = 129\nvalue = [11, 118]"] ;
784 -> 785 ;
786 [label="X[2] <= -0.6784\ngini = 0.144\nsamples = 128\nvalue = [10, 118]"] ;
785 -> 786 ;
787 [label="X[0] <= -0.2028\ngini = 0.1192\nsamples = 110\nvalue = [7, 103]"] ;
786 -> 787 ;
788 [label="X[0] <= -0.213\ngini = 0.1562\nsamples = 82\nvalue = [7, 75]"] ;
787 -> 788 ;
789 [label="X[2] <= -0.6795\ngini = 0.126\nsamples = 74\nvalue = [5, 69]"] ;
788 -> 789 ;
790 [label="X[2] <= -0.6795\ngini = 0.1653\nsamples = 55\nvalue = [5, 50]"] ;
789 -> 790 ;
791 [label="X[3] <= -0.4712\ngini = 0.1372\nsamples = 54\nvalue = [4, 50]"] ;
790 -> 791 ;
792 [label="X[3] <= -0.4714\ngini = 0.255\nsamples = 20\nvalue = [3, 17]"] ;
791 -> 792 ;
793 [label="X[2] <= -0.6796\ngini = 0.1884\nsamples = 19\nvalue = [2, 17]"] ;
792 -> 793 ;
794 [label="X[3] <= -0.4755\ngini = 0.1107\nsamples = 17\nvalue = [1, 16]"] ;
793 -> 794 ;
795 [label="X[3] <= -0.4762\ngini = 0.375\nsamples = 4\nvalue = [1, 3]"] ;
794 -> 795 ;
796 [label="gini = 0.0\nsamples = 3\nvalue = [0, 3]"] ;
795 -> 796 ;
797 [label="gini = 0.0\nsamples = 1\nvalue = [1, 0]"] ;
795 -> 797 ;
798 [label="gini = 0.0\nsamples = 13\nvalue = [0, 13]"] ;
794 -> 798 ;
799 [label="X[0] <= -0.2387\ngini = 0.5\nsamples = 2\nvalue = [1, 1]"] ;
793 -> 799 ;
800 [label="gini = 0.0\nsamples = 1\nvalue = [0, 1]"] ;
799 -> 800 ;
801 [label="gini = 0.0\nsamples = 1\nvalue = [1, 0]"] ;
799 -> 801 ;
802 [label="gini = 0.0\nsamples = 1\nvalue = [1, 0]"] ;
792 -> 802 ;
803 [label="X[0] <= -0.2233\ngini = 0.0571\nsamples = 34\nvalue = [1, 33]"] ;
791 -> 803 ;
804 [label="gini = 0.0\nsamples = 28\nvalue = [0, 28]"] ;
803 -> 804 ;
805 [label="X[154] <= 3.2998\ngini = 0.2778\nsamples = 6\nvalue = [1, 5]"] ;
803 -> 805 ;
806 [label="gini = 0.0\nsamples = 4\nvalue = [0, 4]"] ;
805 -> 806 ;
807 [label="X[3] <= -0.4655\ngini = 0.5\nsamples = 2\nvalue = [1, 1]"] ;
805 -> 807 ;
808 [label="gini = 0.0\nsamples = 1\nvalue = [1, 0]"] ;
807 -> 808 ;
809 [label="gini = 0.0\nsamples = 1\nvalue = [0, 1]"] ;
807 -> 809 ;
810 [label="gini = 0.0\nsamples = 1\nvalue = [1, 0]"] ;
790 -> 810 ;
811 [label="gini = 0.0\nsamples = 19\nvalue = [0, 19]"] ;
789 -> 811 ;
812 [label="X[154] <= 3.2998\ngini = 0.375\nsamples = 8\nvalue = [2, 6]"] ;
788 -> 812 ;
813 [label="X[3] <= -0.4728\ngini = 0.2449\nsamples = 7\nvalue = [1, 6]"] ;
812 -> 813 ;
814 [label="X[302] <= 1.0507\ngini = 0.5\nsamples = 2\nvalue = [1, 1]"] ;
813 -> 814 ;
815 [label="gini = 0.0\nsamples = 1\nvalue = [1, 0]"] ;
814 -> 815 ;
816 [label="gini = 0.0\nsamples = 1\nvalue = [0, 1]"] ;
814 -> 816 ;
817 [label="gini = 0.0\nsamples = 5\nvalue = [0, 5]"] ;
813 -> 817 ;
818 [label="gini = 0.0\nsamples = 1\nvalue = [1, 0]"] ;
812 -> 818 ;
819 [label="gini = 0.0\nsamples = 28\nvalue = [0, 28]"] ;
787 -> 819 ;
820 [label="X[2] <= -0.6784\ngini = 0.2778\nsamples = 18\nvalue = [3, 15]"] ;
786 -> 820 ;
821 [label="gini = 0.0\nsamples = 2\nvalue = [2, 0]"] ;
820 -> 821 ;
822 [label="X[0] <= -0.2746\ngini = 0.1172\nsamples = 16\nvalue = [1, 15]"] ;
820 -> 822 ;
823 [label="X[3] <= -0.4674\ngini = 0.4444\nsamples = 3\nvalue = [1, 2]"] ;
822 -> 823 ;
824 [label="gini = 0.0\nsamples = 1\nvalue = [1, 0]"] ;
823 -> 824 ;
825 [label="gini = 0.0\nsamples = 2\nvalue = [0, 2]"] ;
823 -> 825 ;
826 [label="gini = 0.0\nsamples = 13\nvalue = [0, 13]"] ;
822 -> 826 ;
827 [label="gini = 0.0\nsamples = 1\nvalue = [1, 0]"] ;
785 -> 827 ;
828 [label="X[2] <= -0.6744\ngini = 0.0435\nsamples = 90\nvalue = [2, 88]"] ;
784 -> 828 ;
829 [label="gini = 0.0\nsamples = 62\nvalue = [0, 62]"] ;
828 -> 829 ;
830 [label="X[2] <= -0.6744\ngini = 0.1327\nsamples = 28\nvalue = [2, 26]"] ;
828 -> 830 ;
831 [label="gini = 0.0\nsamples = 1\nvalue = [1, 0]"] ;
830 -> 831 ;
832 [label="X[0] <= -0.2746\ngini = 0.0713\nsamples = 27\nvalue = [1, 26]"] ;
830 -> 832 ;
833 [label="X[3] <= -0.4711\ngini = 0.375\nsamples = 4\nvalue = [1, 3]"] ;
832 -> 833 ;
834 [label="gini = 0.0\nsamples = 1\nvalue = [1, 0]"] ;
833 -> 834 ;
835 [label="gini = 0.0\nsamples = 3\nvalue = [0, 3]"] ;
833 -> 835 ;
836 [label="gini = 0.0\nsamples = 23\nvalue = [0, 23]"] ;
832 -> 836 ;
837 [label="X[2] <= -0.6731\ngini = 0.207\nsamples = 981\nvalue = [115, 866]"] ;
783 -> 837 ;
838 [label="X[0] <= -0.2541\ngini = 0.4444\nsamples = 3\nvalue = [2, 1]"] ;
837 -> 838 ;
839 [label="gini = 0.0\nsamples = 1\nvalue = [0, 1]"] ;
838 -> 839 ;
840 [label="gini = 0.0\nsamples = 2\nvalue = [2, 0]"] ;
838 -> 840 ;
841 [label="X[2] <= -0.6503\ngini = 0.2044\nsamples = 978\nvalue = [113, 865]"] ;
837 -> 841 ;
842 [label="X[3] <= -0.4632\ngini = 0.2521\nsamples = 338\nvalue = [50, 288]"] ;
841 -> 842 ;
843 [label="X[3] <= -0.469\ngini = 0.238\nsamples = 326\nvalue = [45, 281]"] ;
842 -> 843 ;
844 [label="X[3] <= -0.4692\ngini = 0.2672\nsamples = 277\nvalue = [44, 233]"] ;
843 -> 844 ;
845 [label="X[2] <= -0.6504\ngini = 0.2588\nsamples = 275\nvalue = [42, 233]"] ;
844 -> 845 ;
846 [label="X[3] <= -0.4739\ngini = 0.2545\nsamples = 274\nvalue = [41, 233]"] ;
845 -> 846 ;
847 [label="X[2] <= -0.6526\ngini = 0.203\nsamples = 157\nvalue = [18, 139]"] ;
846 -> 847 ;
848 [label="X[3] <= -0.4766\ngini = 0.1862\nsamples = 154\nvalue = [16, 138]"] ;
847 -> 848 ;
849 [label="X[3] <= -0.477\ngini = 0.2847\nsamples = 64\nvalue = [11, 53]"] ;
848 -> 849 ;
850 [label="X[0] <= -0.2028\ngini = 0.1557\nsamples = 47\nvalue = [4, 43]"] ;
849 -> 850 ;
851 [label="X[2] <= -0.667\ngini = 0.0588\nsamples = 33\nvalue = [1, 32]"] ;
850 -> 851 ;
852 [label="X[3] <= -0.4772\ngini = 0.375\nsamples = 4\nvalue = [1, 3]"] ;
851 -> 852 ;
853 [label="gini = 0.0\nsamples = 3\nvalue = [0, 3]"] ;
852 -> 853 ;
854 [label="gini = 0.0\nsamples = 1\nvalue = [1, 0]"] ;
852 -> 854 ;
855 [label="gini = 0.0\nsamples = 29\nvalue = [0, 29]"] ;
851 -> 855 ;
856 [label="X[0] <= -0.1822\ngini = 0.3367\nsamples = 14\nvalue = [3, 11]"] ;
850 -> 856 ;
857 [label="gini = 0.0\nsamples = 1\nvalue = [1, 0]"] ;
856 -> 857 ;
858 [label="X[0] <= -0.1104\ngini = 0.2604\nsamples = 13\nvalue = [2, 11]"] ;
856 -> 858 ;
859 [label="X[3] <= -0.4773\ngini = 0.4444\nsamples = 6\nvalue = [2, 4]"] ;
858 -> 859 ;
860 [label="gini = 0.0\nsamples = 3\nvalue = [0, 3]"] ;
859 -> 860 ;
861 [label="X[3] <= -0.4771\ngini = 0.4444\nsamples = 3\nvalue = [2, 1]"] ;
859 -> 861 ;
862 [label="gini = 0.0\nsamples = 2\nvalue = [2, 0]"] ;
861 -> 862 ;
863 [label="gini = 0.0\nsamples = 1\nvalue = [0, 1]"] ;
861 -> 863 ;
864 [label="gini = 0.0\nsamples = 7\nvalue = [0, 7]"] ;
858 -> 864 ;
865 [label="X[2] <= -0.6582\ngini = 0.4844\nsamples = 17\nvalue = [7, 10]"] ;
849 -> 865 ;
866 [label="X[3] <= -0.4769\ngini = 0.4444\nsamples = 15\nvalue = [5, 10]"] ;
865 -> 866 ;
867 [label="gini = 0.0\nsamples = 2\nvalue = [2, 0]"] ;
866 -> 867 ;
868 [label="X[0] <= 0.0332\ngini = 0.355\nsamples = 13\nvalue = [3, 10]"] ;
866 -> 868 ;
869 [label="X[1] <= -2.0778\ngini = 0.2778\nsamples = 12\nvalue = [2, 10]"] ;
868 -> 869 ;
870 [label="X[2] <= -0.6634\ngini = 0.5\nsamples = 4\nvalue = [2, 2]"] ;
869 -> 870 ;
871 [label="gini = 0.0\nsamples = 2\nvalue = [2, 0]"] ;
870 -> 871 ;
872 [label="gini = 0.0\nsamples = 2\nvalue = [0, 2]"] ;
870 -> 872 ;
873 [label="gini = 0.0\nsamples = 8\nvalue = [0, 8]"] ;
869 -> 873 ;
874 [label="gini = 0.0\nsamples = 1\nvalue = [1, 0]"] ;
868 -> 874 ;
875 [label="gini = 0.0\nsamples = 2\nvalue = [2, 0]"] ;
865 -> 875 ;
876 [label="X[0] <= -0.2541\ngini = 0.1049\nsamples = 90\nvalue = [5, 85]"] ;
848 -> 876 ;
877 [label="X[0] <= -0.2643\ngini = 0.2188\nsamples = 40\nvalue = [5, 35]"] ;
876 -> 877 ;
878 [label="X[2] <= -0.6691\ngini = 0.1327\nsamples = 28\nvalue = [2, 26]"] ;
877 -> 878 ;
879 [label="X[2] <= -0.6692\ngini = 0.32\nsamples = 5\nvalue = [1, 4]"] ;
878 -> 879 ;
880 [label="gini = 0.0\nsamples = 4\nvalue = [0, 4]"] ;
879 -> 880 ;
881 [label="gini = 0.0\nsamples = 1\nvalue = [1, 0]"] ;
879 -> 881 ;
882 [label="X[2] <= -0.6564\ngini = 0.0832\nsamples = 23\nvalue = [1, 22]"] ;
878 -> 882 ;
883 [label="gini = 0.0\nsamples = 17\nvalue = [0, 17]"] ;
882 -> 883 ;
884 [label="X[2] <= -0.6561\ngini = 0.2778\nsamples = 6\nvalue = [1, 5]"] ;
882 -> 884 ;
885 [label="gini = 0.0\nsamples = 1\nvalue = [1, 0]"] ;
884 -> 885 ;
886 [label="gini = 0.0\nsamples = 5\nvalue = [0, 5]"] ;
884 -> 886 ;
887 [label="X[3] <= -0.476\ngini = 0.375\nsamples = 12\nvalue = [3, 9]"] ;
877 -> 887 ;
888 [label="gini = 0.0\nsamples = 1\nvalue = [1, 0]"] ;
887 -> 888 ;
889 [label="X[2] <= -0.6584\ngini = 0.2975\nsamples = 11\nvalue = [2, 9]"] ;
887 -> 889 ;
890 [label="X[3] <= -0.475\ngini = 0.4082\nsamples = 7\nvalue = [2, 5]"] ;
889 -> 890 ;
891 [label="gini = 0.0\nsamples = 1\nvalue = [1, 0]"] ;
890 -> 891 ;
892 [label="X[2] <= -0.6677\ngini = 0.2778\nsamples = 6\nvalue = [1, 5]"] ;
890 -> 892 ;
893 [label="X[3] <= -0.4747\ngini = 0.4444\nsamples = 3\nvalue = [1, 2]"] ;
892 -> 893 ;
894 [label="gini = 0.0\nsamples = 2\nvalue = [0, 2]"] ;
893 -> 894 ;
895 [label="gini = 0.0\nsamples = 1\nvalue = [1, 0]"] ;
893 -> 895 ;
896 [label="gini = 0.0\nsamples = 3\nvalue = [0, 3]"] ;
892 -> 896 ;
897 [label="gini = 0.0\nsamples = 4\nvalue = [0, 4]"] ;
889 -> 897 ;
898 [label="gini = 0.0\nsamples = 50\nvalue = [0, 50]"] ;
876 -> 898 ;
899 [label="X[2] <= -0.6506\ngini = 0.4444\nsamples = 3\nvalue = [2, 1]"] ;
847 -> 899 ;
900 [label="gini = 0.0\nsamples = 2\nvalue = [2, 0]"] ;
899 -> 900 ;
901 [label="gini = 0.0\nsamples = 1\nvalue = [0, 1]"] ;
899 -> 901 ;
902 [label="X[3] <= -0.4718\ngini = 0.3159\nsamples = 117\nvalue = [23, 94]"] ;
846 -> 902 ;
903 [label="X[2] <= -0.6648\ngini = 0.4121\nsamples = 62\nvalue = [18, 44]"] ;
902 -> 903 ;
904 [label="X[3] <= -0.4725\ngini = 0.2637\nsamples = 32\nvalue = [5, 27]"] ;
903 -> 904 ;
905 [label="gini = 0.0\nsamples = 16\nvalue = [0, 16]"] ;
904 -> 905 ;
906 [label="X[3] <= -0.4723\ngini = 0.4297\nsamples = 16\nvalue = [5, 11]"] ;
904 -> 906 ;
907 [label="gini = 0.0\nsamples = 3\nvalue = [3, 0]"] ;
906 -> 907 ;
908 [label="X[0] <= -0.172\ngini = 0.2604\nsamples = 13\nvalue = [2, 11]"] ;
906 -> 908 ;
909 [label="X[0] <= -0.1822\ngini = 0.3457\nsamples = 9\nvalue = [2, 7]"] ;
908 -> 909 ;
910 [label="X[3] <= -0.4723\ngini = 0.2188\nsamples = 8\nvalue = [1, 7]"] ;
909 -> 910 ;
911 [label="X[3] <= -0.4723\ngini = 0.5\nsamples = 2\nvalue = [1, 1]"] ;
910 -> 911 ;
912 [label="gini = 0.0\nsamples = 1\nvalue = [0, 1]"] ;
911 -> 912 ;
913 [label="gini = 0.0\nsamples = 1\nvalue = [1, 0]"] ;
911 -> 913 ;
914 [label="gini = 0.0\nsamples = 6\nvalue = [0, 6]"] ;
910 -> 914 ;
915 [label="gini = 0.0\nsamples = 1\nvalue = [1, 0]"] ;
909 -> 915 ;
916 [label="gini = 0.0\nsamples = 4\nvalue = [0, 4]"] ;
908 -> 916 ;
917 [label="X[2] <= -0.6612\ngini = 0.4911\nsamples = 30\nvalue = [13, 17]"] ;
903 -> 917 ;
918 [label="X[0] <= -0.2643\ngini = 0.375\nsamples = 12\nvalue = [9, 3]"] ;
917 -> 918 ;
919 [label="X[2] <= -0.6642\ngini = 0.4444\nsamples = 3\nvalue = [1, 2]"] ;
918 -> 919 ;
920 [label="gini = 0.0\nsamples = 1\nvalue = [1, 0]"] ;
919 -> 920 ;
921 [label="gini = 0.0\nsamples = 2\nvalue = [0, 2]"] ;
919 -> 921 ;
922 [label="X[3] <= -0.4718\ngini = 0.1975\nsamples = 9\nvalue = [8, 1]"] ;
918 -> 922 ;
923 [label="gini = 0.0\nsamples = 8\nvalue = [8, 0]"] ;
922 -> 923 ;
924 [label="gini = 0.0\nsamples = 1\nvalue = [0, 1]"] ;
922 -> 924 ;
925 [label="X[3] <= -0.4718\ngini = 0.3457\nsamples = 18\nvalue = [4, 14]"] ;
917 -> 925 ;
926 [label="X[2] <= -0.6577\ngini = 0.2188\nsamples = 16\nvalue = [2, 14]"] ;
925 -> 926 ;
927 [label="gini = 0.0\nsamples = 11\nvalue = [0, 11]"] ;
926 -> 927 ;
928 [label="X[358] <= 1.7495\ngini = 0.48\nsamples = 5\nvalue = [2, 3]"] ;
926 -> 928 ;
929 [label="gini = 0.0\nsamples = 2\nvalue = [0, 2]"] ;
928 -> 929 ;
930 [label="X[1] <= -2.0778\ngini = 0.4444\nsamples = 3\nvalue = [2, 1]"] ;
928 -> 930 ;
931 [label="X[3] <= -0.4719\ngini = 0.5\nsamples = 2\nvalue = [1, 1]"] ;
930 -> 931 ;
932 [label="gini = 0.0\nsamples = 1\nvalue = [1, 0]"] ;
931 -> 932 ;
933 [label="gini = 0.0\nsamples = 1\nvalue = [0, 1]"] ;
931 -> 933 ;
934 [label="gini = 0.0\nsamples = 1\nvalue = [1, 0]"] ;
930 -> 934 ;
935 [label="gini = 0.0\nsamples = 2\nvalue = [2, 0]"] ;
925 -> 935 ;
936 [label="X[0] <= 0.0538\ngini = 0.1653\nsamples = 55\nvalue = [5, 50]"] ;
902 -> 936 ;
937 [label="X[3] <= -0.4699\ngini = 0.1372\nsamples = 54\nvalue = [4, 50]"] ;
936 -> 937 ;
938 [label="X[1] <= -2.0778\ngini = 0.0815\nsamples = 47\nvalue = [2, 45]"] ;
937 -> 938 ;
939 [label="X[0] <= -0.2643\ngini = 0.2449\nsamples = 14\nvalue = [2, 12]"] ;
938 -> 939 ;
940 [label="X[2] <= -0.6702\ngini = 0.5\nsamples = 2\nvalue = [1, 1]"] ;
939 -> 940 ;
941 [label="gini = 0.0\nsamples = 1\nvalue = [1, 0]"] ;
940 -> 941 ;
942 [label="gini = 0.0\nsamples = 1\nvalue = [0, 1]"] ;
940 -> 942 ;
943 [label="X[2] <= -0.6579\ngini = 0.1528\nsamples = 12\nvalue = [1, 11]"] ;
939 -> 943 ;
944 [label="gini = 0.0\nsamples = 8\nvalue = [0, 8]"] ;
943 -> 944 ;
945 [label="X[2] <= -0.6576\ngini = 0.375\nsamples = 4\nvalue = [1, 3]"] ;
943 -> 945 ;
946 [label="gini = 0.0\nsamples = 1\nvalue = [1, 0]"] ;
945 -> 946 ;
947 [label="gini = 0.0\nsamples = 3\nvalue = [0, 3]"] ;
945 -> 947 ;
948 [label="gini = 0.0\nsamples = 33\nvalue = [0, 33]"] ;
938 -> 948 ;
949 [label="X[3] <= -0.4697\ngini = 0.4082\nsamples = 7\nvalue = [2, 5]"] ;
937 -> 949 ;
950 [label="gini = 0.0\nsamples = 2\nvalue = [2, 0]"] ;
949 -> 950 ;
951 [label="gini = 0.0\nsamples = 5\nvalue = [0, 5]"] ;
949 -> 951 ;
952 [label="gini = 0.0\nsamples = 1\nvalue = [1, 0]"] ;
936 -> 952 ;
953 [label="gini = 0.0\nsamples = 1\nvalue = [1, 0]"] ;
845 -> 953 ;
954 [label="gini = 0.0\nsamples = 2\nvalue = [2, 0]"] ;
844 -> 954 ;
955 [label="X[2] <= -0.6668\ngini = 0.04\nsamples = 49\nvalue = [1, 48]"] ;
843 -> 955 ;
956 [label="gini = 0.0\nsamples = 34\nvalue = [0, 34]"] ;
955 -> 956 ;
957 [label="X[2] <= -0.6666\ngini = 0.1244\nsamples = 15\nvalue = [1, 14]"] ;
955 -> 957 ;
958 [label="gini = 0.0\nsamples = 1\nvalue = [1, 0]"] ;
957 -> 958 ;
959 [label="gini = 0.0\nsamples = 14\nvalue = [0, 14]"] ;
957 -> 959 ;
960 [label="X[2] <= -0.6648\ngini = 0.4861\nsamples = 12\nvalue = [5, 7]"] ;
842 -> 960 ;
961 [label="X[2] <= -0.6728\ngini = 0.42\nsamples = 10\nvalue = [3, 7]"] ;
960 -> 961 ;
962 [label="X[3] <= -0.4605\ngini = 0.5\nsamples = 6\nvalue = [3, 3]"] ;
961 -> 962 ;
963 [label="gini = 0.0\nsamples = 2\nvalue = [2, 0]"] ;
962 -> 963 ;
964 [label="X[2] <= -0.6729\ngini = 0.375\nsamples = 4\nvalue = [1, 3]"] ;
962 -> 964 ;
965 [label="gini = 0.0\nsamples = 3\nvalue = [0, 3]"] ;
964 -> 965 ;
966 [label="gini = 0.0\nsamples = 1\nvalue = [1, 0]"] ;
964 -> 966 ;
967 [label="gini = 0.0\nsamples = 4\nvalue = [0, 4]"] ;
961 -> 967 ;
968 [label="gini = 0.0\nsamples = 2\nvalue = [2, 0]"] ;
960 -> 968 ;
969 [label="X[3] <= -0.4747\ngini = 0.1775\nsamples = 640\nvalue = [63, 577]"] ;
841 -> 969 ;
970 [label="X[0] <= -0.0899\ngini = 0.0384\nsamples = 51\nvalue = [1, 50]"] ;
969 -> 970 ;
971 [label="gini = 0.0\nsamples = 47\nvalue = [0, 47]"] ;
970 -> 971 ;
972 [label="X[0] <= -0.0796\ngini = 0.375\nsamples = 4\nvalue = [1, 3]"] ;
970 -> 972 ;
973 [label="gini = 0.0\nsamples = 1\nvalue = [1, 0]"] ;
972 -> 973 ;
974 [label="gini = 0.0\nsamples = 3\nvalue = [0, 3]"] ;
972 -> 974 ;
975 [label="X[3] <= -0.4747\ngini = 0.1884\nsamples = 589\nvalue = [62, 527]"] ;
969 -> 975 ;
976 [label="gini = 0.0\nsamples = 1\nvalue = [1, 0]"] ;
975 -> 976 ;
977 [label="X[343] <= 15.9675\ngini = 0.186\nsamples = 588\nvalue = [61, 527]"] ;
975 -> 977 ;
978 [label="X[261] <= 31.1015\ngini = 0.1838\nsamples = 586\nvalue = [60, 526]"] ;
977 -> 978 ;
979 [label="X[86] <= 6.4915\ngini = 0.1816\nsamples = 584\nvalue = [59, 525]"] ;
978 -> 979 ;
980 [label="X[3] <= 0.8837\ngini = 0.1743\nsamples = 560\nvalue = [54, 506]"] ;
979 -> 980 ;
981 [label="X[2] <= 0.6027\ngini = 0.1641\nsamples = 521\nvalue = [47, 474]"] ;
980 -> 981 ;
982 [label="X[2] <= 0.5999\ngini = 0.1892\nsamples = 416\nvalue = [44, 372]"] ;
981 -> 982 ;
983 [label="X[2] <= 0.11\ngini = 0.1582\nsamples = 381\nvalue = [33, 348]"] ;
982 -> 983 ;
984 [label="X[2] <= -0.315\ngini = 0.1726\nsamples = 346\nvalue = [33, 313]"] ;
983 -> 984 ;
985 [label="X[3] <= 0.6335\ngini = 0.1683\nsamples = 345\nvalue = [32, 313]"] ;
984 -> 985 ;
986 [label="X[2] <= -0.3431\ngini = 0.1644\nsamples = 343\nvalue = [31, 312]"] ;
985 -> 986 ;
987 [label="X[2] <= -0.3432\ngini = 0.1859\nsamples = 270\nvalue = [28, 242]"] ;
986 -> 987 ;
988 [label="X[2] <= -0.3585\ngini = 0.1806\nsamples = 269\nvalue = [27, 242]"] ;
987 -> 988 ;
989 [label="X[2] <= -0.3752\ngini = 0.152\nsamples = 181\nvalue = [15, 166]"] ;
988 -> 989 ;
990 [label="X[2] <= -0.3757\ngini = 0.2112\nsamples = 125\nvalue = [15, 110]"] ;
989 -> 990 ;
991 [label="X[3] <= 0.6284\ngini = 0.189\nsamples = 123\nvalue = [13, 110]"] ;
990 -> 991 ;
992 [label="X[3] <= -0.4706\ngini = 0.1774\nsamples = 122\nvalue = [12, 110]"] ;
991 -> 992 ;
993 [label="X[3] <= -0.4711\ngini = 0.2347\nsamples = 81\nvalue = [11, 70]"] ;
992 -> 993 ;
994 [label="X[302] <= 1.0507\ngini = 0.1777\nsamples = 71\nvalue = [7, 64]"] ;
993 -> 994 ;
995 [label="X[2] <= -0.6365\ngini = 0.0571\nsamples = 34\nvalue = [1, 33]"] ;
994 -> 995 ;
996 [label="X[2] <= -0.6368\ngini = 0.2188\nsamples = 8\nvalue = [1, 7]"] ;
995 -> 996 ;
997 [label="gini = 0.0\nsamples = 7\nvalue = [0, 7]"] ;
996 -> 997 ;
998 [label="gini = 0.0\nsamples = 1\nvalue = [1, 0]"] ;
996 -> 998 ;
999 [label="gini = 0.0\nsamples = 26\nvalue = [0, 26]"] ;
995 -> 999 ;
1000 [label="X[3] <= -0.4739\ngini = 0.2717\nsamples = 37\nvalue = [6, 31]"] ;
994 -> 1000 ;
1001 [label="gini = 0.0\nsamples = 8\nvalue = [0, 8]"] ;
1000 -> 1001 ;
1002 [label="X[3] <= -0.4738\ngini = 0.3282\nsamples = 29\nvalue = [6, 23]"] ;
1000 -> 1002 ;
1003 [label="gini = 0.0\nsamples = 1\nvalue = [1, 0]"] ;
1002 -> 1003 ;
1004 [label="X[0] <= -0.2028\ngini = 0.2934\nsamples = 28\nvalue = [5, 23]"] ;
1002 -> 1004 ;
1005 [label="X[2] <= -0.6379\ngini = 0.4012\nsamples = 18\nvalue = [5, 13]"] ;
1004 -> 1005 ;
1006 [label="gini = 0.0\nsamples = 7\nvalue = [0, 7]"] ;
1005 -> 1006 ;
1007 [label="X[0] <= -0.2438\ngini = 0.4959\nsamples = 11\nvalue = [5, 6]"] ;
1005 -> 1007 ;
1008 [label="X[3] <= -0.4736\ngini = 0.375\nsamples = 8\nvalue = [2, 6]"] ;
1007 -> 1008 ;
1009 [label="gini = 0.0\nsamples = 2\nvalue = [2, 0]"] ;
1008 -> 1009 ;
1010 [label="gini = 0.0\nsamples = 6\nvalue = [0, 6]"] ;
1008 -> 1010 ;
1011 [label="gini = 0.0\nsamples = 3\nvalue = [3, 0]"] ;
1007 -> 1011 ;
1012 [label="gini = 0.0\nsamples = 10\nvalue = [0, 10]"] ;
1004 -> 1012 ;
1013 [label="X[3] <= -0.471\ngini = 0.48\nsamples = 10\nvalue = [4, 6]"] ;
993 -> 1013 ;
1014 [label="gini = 0.0\nsamples = 2\nvalue = [2, 0]"] ;
1013 -> 1014 ;
1015 [label="X[0] <= -0.172\ngini = 0.375\nsamples = 8\nvalue = [2, 6]"] ;
1013 -> 1015 ;
1016 [label="gini = 0.0\nsamples = 5\nvalue = [0, 5]"] ;
1015 -> 1016 ;
1017 [label="X[2] <= -0.6358\ngini = 0.4444\nsamples = 3\nvalue = [2, 1]"] ;
1015 -> 1017 ;
1018 [label="gini = 0.0\nsamples = 1\nvalue = [0, 1]"] ;
1017 -> 1018 ;
1019 [label="gini = 0.0\nsamples = 2\nvalue = [2, 0]"] ;
1017 -> 1019 ;
1020 [label="X[151] <= 10.0957\ngini = 0.0476\nsamples = 41\nvalue = [1, 40]"] ;
992 -> 1020 ;
1021 [label="gini = 0.0\nsamples = 37\nvalue = [0, 37]"] ;
1020 -> 1021 ;
1022 [label="X[0] <= -0.1925\ngini = 0.375\nsamples = 4\nvalue = [1, 3]"] ;
1020 -> 1022 ;
1023 [label="gini = 0.0\nsamples = 2\nvalue = [0, 2]"] ;
1022 -> 1023 ;
1024 [label="X[0] <= -0.0899\ngini = 0.5\nsamples = 2\nvalue = [1, 1]"] ;
1022 -> 1024 ;
1025 [label="gini = 0.0\nsamples = 1\nvalue = [1, 0]"] ;
1024 -> 1025 ;
1026 [label="gini = 0.0\nsamples = 1\nvalue = [0, 1]"] ;
1024 -> 1026 ;
1027 [label="gini = 0.0\nsamples = 1\nvalue = [1, 0]"] ;
991 -> 1027 ;
1028 [label="gini = 0.0\nsamples = 2\nvalue = [2, 0]"] ;
990 -> 1028 ;
1029 [label="gini = 0.0\nsamples = 56\nvalue = [0, 56]"] ;
989 -> 1029 ;
1030 [label="X[2] <= -0.3582\ngini = 0.2355\nsamples = 88\nvalue = [12, 76]"] ;
988 -> 1030 ;
1031 [label="gini = 0.0\nsamples = 1\nvalue = [1, 0]"] ;
1030 -> 1031 ;
1032 [label="X[2] <= -0.3547\ngini = 0.2209\nsamples = 87\nvalue = [11, 76]"] ;
1030 -> 1032 ;
1033 [label="X[3] <= 0.6253\ngini = 0.4082\nsamples = 14\nvalue = [4, 10]"] ;
1032 -> 1033 ;
1034 [label="gini = 0.0\nsamples = 6\nvalue = [0, 6]"] ;
1033 -> 1034 ;
1035 [label="X[2] <= -0.3573\ngini = 0.5\nsamples = 8\nvalue = [4, 4]"] ;
1033 -> 1035 ;
1036 [label="gini = 0.0\nsamples = 2\nvalue = [0, 2]"] ;
1035 -> 1036 ;
1037 [label="X[0] <= -0.2746\ngini = 0.4444\nsamples = 6\nvalue = [4, 2]"] ;
1035 -> 1037 ;
1038 [label="gini = 0.0\nsamples = 1\nvalue = [0, 1]"] ;
1037 -> 1038 ;
1039 [label="X[3] <= 0.6257\ngini = 0.32\nsamples = 5\nvalue = [4, 1]"] ;
1037 -> 1039 ;
1040 [label="X[0] <= -0.1976\ngini = 0.5\nsamples = 2\nvalue = [1, 1]"] ;
1039 -> 1040 ;
1041 [label="gini = 0.0\nsamples = 1\nvalue = [0, 1]"] ;
1040 -> 1041 ;
1042 [label="gini = 0.0\nsamples = 1\nvalue = [1, 0]"] ;
1040 -> 1042 ;
1043 [label="gini = 0.0\nsamples = 3\nvalue = [3, 0]"] ;
1039 -> 1043 ;
1044 [label="X[0] <= -0.2541\ngini = 0.1734\nsamples = 73\nvalue = [7, 66]"] ;
1032 -> 1044 ;
1045 [label="X[3] <= 0.6324\ngini = 0.0588\nsamples = 33\nvalue = [1, 32]"] ;
1044 -> 1045 ;
1046 [label="gini = 0.0\nsamples = 30\nvalue = [0, 30]"] ;
1045 -> 1046 ;
1047 [label="X[3] <= 0.6329\ngini = 0.4444\nsamples = 3\nvalue = [1, 2]"] ;
1045 -> 1047 ;
1048 [label="gini = 0.0\nsamples = 1\nvalue = [1, 0]"] ;
1047 -> 1048 ;
1049 [label="gini = 0.0\nsamples = 2\nvalue = [0, 2]"] ;
1047 -> 1049 ;
1050 [label="X[0] <= -0.1822\ngini = 0.255\nsamples = 40\nvalue = [6, 34]"] ;
1044 -> 1050 ;
1051 [label="X[0] <= -0.2028\ngini = 0.375\nsamples = 24\nvalue = [6, 18]"] ;
1050 -> 1051 ;
1052 [label="X[2] <= -0.3472\ngini = 0.2659\nsamples = 19\nvalue = [3, 16]"] ;
1051 -> 1052 ;
1053 [label="gini = 0.0\nsamples = 7\nvalue = [0, 7]"] ;
1052 -> 1053 ;
1054 [label="X[2] <= -0.347\ngini = 0.375\nsamples = 12\nvalue = [3, 9]"] ;
1052 -> 1054 ;
1055 [label="gini = 0.0\nsamples = 1\nvalue = [1, 0]"] ;
1054 -> 1055 ;
1056 [label="X[2] <= -0.3451\ngini = 0.2975\nsamples = 11\nvalue = [2, 9]"] ;
1054 -> 1056 ;
1057 [label="gini = 0.0\nsamples = 5\nvalue = [0, 5]"] ;
1056 -> 1057 ;
1058 [label="X[2] <= -0.3447\ngini = 0.4444\nsamples = 6\nvalue = [2, 4]"] ;
1056 -> 1058 ;
1059 [label="gini = 0.0\nsamples = 1\nvalue = [1, 0]"] ;
1058 -> 1059 ;
1060 [label="X[2] <= -0.3442\ngini = 0.32\nsamples = 5\nvalue = [1, 4]"] ;
1058 -> 1060 ;
1061 [label="gini = 0.0\nsamples = 3\nvalue = [0, 3]"] ;
1060 -> 1061 ;
1062 [label="X[0] <= -0.2284\ngini = 0.5\nsamples = 2\nvalue = [1, 1]"] ;
1060 -> 1062 ;
1063 [label="gini = 0.0\nsamples = 1\nvalue = [1, 0]"] ;
1062 -> 1063 ;
1064 [label="gini = 0.0\nsamples = 1\nvalue = [0, 1]"] ;
1062 -> 1064 ;
1065 [label="X[2] <= -0.3449\ngini = 0.48\nsamples = 5\nvalue = [3, 2]"] ;
1051 -> 1065 ;
1066 [label="X[2] <= -0.3511\ngini = 0.4444\nsamples = 3\nvalue = [1, 2]"] ;
1065 -> 1066 ;
1067 [label="gini = 0.0\nsamples = 1\nvalue = [0, 1]"] ;
1066 -> 1067 ;
1068 [label="X[1] <= -2.0778\ngini = 0.5\nsamples = 2\nvalue = [1, 1]"] ;
1066 -> 1068 ;
1069 [label="gini = 0.0\nsamples = 1\nvalue = [0, 1]"] ;
1068 -> 1069 ;
1070 [label="gini = 0.0\nsamples = 1\nvalue = [1, 0]"] ;
1068 -> 1070 ;
1071 [label="gini = 0.0\nsamples = 2\nvalue = [2, 0]"] ;
1065 -> 1071 ;
1072 [label="gini = 0.0\nsamples = 16\nvalue = [0, 16]"] ;
1050 -> 1072 ;
1073 [label="gini = 0.0\nsamples = 1\nvalue = [1, 0]"] ;
987 -> 1073 ;
1074 [label="X[0] <= -0.0386\ngini = 0.0788\nsamples = 73\nvalue = [3, 70]"] ;
986 -> 1074 ;
1075 [label="X[2] <= -0.3176\ngini = 0.054\nsamples = 72\nvalue = [2, 70]"] ;
1074 -> 1075 ;
1076 [label="X[2] <= -0.3245\ngini = 0.029\nsamples = 68\nvalue = [1, 67]"] ;
1075 -> 1076 ;
1077 [label="gini = 0.0\nsamples = 55\nvalue = [0, 55]"] ;
1076 -> 1077 ;
1078 [label="X[2] <= -0.3239\ngini = 0.142\nsamples = 13\nvalue = [1, 12]"] ;
1076 -> 1078 ;
1079 [label="gini = 0.0\nsamples = 1\nvalue = [1, 0]"] ;
1078 -> 1079 ;
1080 [label="gini = 0.0\nsamples = 12\nvalue = [0, 12]"] ;
1078 -> 1080 ;
1081 [label="X[2] <= -0.3174\ngini = 0.375\nsamples = 4\nvalue = [1, 3]"] ;
1075 -> 1081 ;
1082 [label="gini = 0.0\nsamples = 1\nvalue = [1, 0]"] ;
1081 -> 1082 ;
1083 [label="gini = 0.0\nsamples = 3\nvalue = [0, 3]"] ;
1081 -> 1083 ;
1084 [label="gini = 0.0\nsamples = 1\nvalue = [1, 0]"] ;
1074 -> 1084 ;
1085 [label="X[1] <= -2.0778\ngini = 0.5\nsamples = 2\nvalue = [1, 1]"] ;
985 -> 1085 ;
1086 [label="gini = 0.0\nsamples = 1\nvalue = [0, 1]"] ;
1085 -> 1086 ;
1087 [label="gini = 0.0\nsamples = 1\nvalue = [1, 0]"] ;
1085 -> 1087 ;
1088 [label="gini = 0.0\nsamples = 1\nvalue = [1, 0]"] ;
984 -> 1088 ;
1089 [label="gini = 0.0\nsamples = 35\nvalue = [0, 35]"] ;
983 -> 1089 ;
1090 [label="X[2] <= 0.5999\ngini = 0.431\nsamples = 35\nvalue = [11, 24]"] ;
982 -> 1090 ;
1091 [label="gini = 0.0\nsamples = 3\nvalue = [3, 0]"] ;
1090 -> 1091 ;
1092 [label="X[3] <= 0.6567\ngini = 0.375\nsamples = 32\nvalue = [8, 24]"] ;
1090 -> 1092 ;
1093 [label="X[0] <= -0.2541\ngini = 0.4688\nsamples = 8\nvalue = [5, 3]"] ;
1092 -> 1093 ;
1094 [label="gini = 0.0\nsamples = 2\nvalue = [0, 2]"] ;
1093 -> 1094 ;
1095 [label="X[0] <= -0.1053\ngini = 0.2778\nsamples = 6\nvalue = [5, 1]"] ;
1093 -> 1095 ;
1096 [label="gini = 0.0\nsamples = 4\nvalue = [4, 0]"] ;
1095 -> 1096 ;
1097 [label="X[3] <= 0.656\ngini = 0.5\nsamples = 2\nvalue = [1, 1]"] ;
1095 -> 1097 ;
1098 [label="gini = 0.0\nsamples = 1\nvalue = [1, 0]"] ;
1097 -> 1098 ;
1099 [label="gini = 0.0\nsamples = 1\nvalue = [0, 1]"] ;
1097 -> 1099 ;
1100 [label="X[3] <= 0.6588\ngini = 0.2188\nsamples = 24\nvalue = [3, 21]"] ;
1092 -> 1100 ;
1101 [label="gini = 0.0\nsamples = 17\nvalue = [0, 17]"] ;
1100 -> 1101 ;
1102 [label="X[2] <= 0.6012\ngini = 0.4898\nsamples = 7\nvalue = [3, 4]"] ;
1100 -> 1102 ;
1103 [label="X[3] <= 0.6594\ngini = 0.48\nsamples = 5\nvalue = [3, 2]"] ;
1102 -> 1103 ;
1104 [label="gini = 0.0\nsamples = 1\nvalue = [1, 0]"] ;
1103 -> 1104 ;
1105 [label="X[1] <= -2.0778\ngini = 0.5\nsamples = 4\nvalue = [2, 2]"] ;
1103 -> 1105 ;
1106 [label="gini = 0.0\nsamples = 1\nvalue = [1, 0]"] ;
1105 -> 1106 ;
1107 [label="X[3] <= 0.6604\ngini = 0.4444\nsamples = 3\nvalue = [1, 2]"] ;
1105 -> 1107 ;
1108 [label="gini = 0.0\nsamples = 2\nvalue = [0, 2]"] ;
1107 -> 1108 ;
1109 [label="gini = 0.0\nsamples = 1\nvalue = [1, 0]"] ;
1107 -> 1109 ;
1110 [label="gini = 0.0\nsamples = 2\nvalue = [0, 2]"] ;
1102 -> 1110 ;
1111 [label="X[418] <= 8.4691\ngini = 0.0555\nsamples = 105\nvalue = [3, 102]"] ;
981 -> 1111 ;
1112 [label="X[2] <= 1.5266\ngini = 0.0396\nsamples = 99\nvalue = [2, 97]"] ;
1111 -> 1112 ;
1113 [label="X[1] <= -2.0778\ngini = 0.022\nsamples = 90\nvalue = [1, 89]"] ;
1112 -> 1113 ;
1114 [label="X[0] <= -0.2438\ngini = 0.0689\nsamples = 28\nvalue = [1, 27]"] ;
1113 -> 1114 ;
1115 [label="gini = 0.0\nsamples = 18\nvalue = [0, 18]"] ;
1114 -> 1115 ;
1116 [label="X[3] <= 0.6594\ngini = 0.18\nsamples = 10\nvalue = [1, 9]"] ;
1114 -> 1116 ;
1117 [label="gini = 0.0\nsamples = 7\nvalue = [0, 7]"] ;
1116 -> 1117 ;
1118 [label="X[3] <= 0.6596\ngini = 0.4444\nsamples = 3\nvalue = [1, 2]"] ;
1116 -> 1118 ;
1119 [label="gini = 0.0\nsamples = 1\nvalue = [1, 0]"] ;
1118 -> 1119 ;
1120 [label="gini = 0.0\nsamples = 2\nvalue = [0, 2]"] ;
1118 -> 1120 ;
1121 [label="gini = 0.0\nsamples = 62\nvalue = [0, 62]"] ;
1113 -> 1121 ;
1122 [label="X[2] <= 1.5272\ngini = 0.1975\nsamples = 9\nvalue = [1, 8]"] ;
1112 -> 1122 ;
1123 [label="gini = 0.0\nsamples = 1\nvalue = [1, 0]"] ;
1122 -> 1123 ;
1124 [label="gini = 0.0\nsamples = 8\nvalue = [0, 8]"] ;
1122 -> 1124 ;
1125 [label="X[1] <= -2.0778\ngini = 0.2778\nsamples = 6\nvalue = [1, 5]"] ;
1111 -> 1125 ;
1126 [label="gini = 0.0\nsamples = 1\nvalue = [1, 0]"] ;
1125 -> 1126 ;
1127 [label="gini = 0.0\nsamples = 5\nvalue = [0, 5]"] ;
1125 -> 1127 ;
1128 [label="X[2] <= 1.5201\ngini = 0.2945\nsamples = 39\nvalue = [7, 32]"] ;
980 -> 1128 ;
1129 [label="X[3] <= 0.8837\ngini = 0.375\nsamples = 4\nvalue = [3, 1]"] ;
1128 -> 1129 ;
1130 [label="gini = 0.0\nsamples = 3\nvalue = [3, 0]"] ;
1129 -> 1130 ;
1131 [label="gini = 0.0\nsamples = 1\nvalue = [0, 1]"] ;
1129 -> 1131 ;
1132 [label="X[1] <= -2.0778\ngini = 0.2024\nsamples = 35\nvalue = [4, 31]"] ;
1128 -> 1132 ;
1133 [label="X[3] <= 0.8839\ngini = 0.4688\nsamples = 8\nvalue = [3, 5]"] ;
1132 -> 1133 ;
1134 [label="gini = 0.0\nsamples = 2\nvalue = [2, 0]"] ;
1133 -> 1134 ;
1135 [label="X[0] <= -0.2695\ngini = 0.2778\nsamples = 6\nvalue = [1, 5]"] ;
1133 -> 1135 ;
1136 [label="X[3] <= 0.8839\ngini = 0.4444\nsamples = 3\nvalue = [1, 2]"] ;
1135 -> 1136 ;
1137 [label="gini = 0.0\nsamples = 1\nvalue = [0, 1]"] ;
1136 -> 1137 ;
1138 [label="X[2] <= 1.5221\ngini = 0.5\nsamples = 2\nvalue = [1, 1]"] ;
1136 -> 1138 ;
1139 [label="gini = 0.0\nsamples = 1\nvalue = [0, 1]"] ;
1138 -> 1139 ;
1140 [label="gini = 0.0\nsamples = 1\nvalue = [1, 0]"] ;
1138 -> 1140 ;
1141 [label="gini = 0.0\nsamples = 3\nvalue = [0, 3]"] ;
1135 -> 1141 ;
1142 [label="X[3] <= 0.8843\ngini = 0.0713\nsamples = 27\nvalue = [1, 26]"] ;
1132 -> 1142 ;
1143 [label="gini = 0.0\nsamples = 23\nvalue = [0, 23]"] ;
1142 -> 1143 ;
1144 [label="X[3] <= 0.8844\ngini = 0.375\nsamples = 4\nvalue = [1, 3]"] ;
1142 -> 1144 ;
1145 [label="gini = 0.0\nsamples = 1\nvalue = [1, 0]"] ;
1144 -> 1145 ;
1146 [label="gini = 0.0\nsamples = 3\nvalue = [0, 3]"] ;
1144 -> 1146 ;
1147 [label="X[3] <= 0.3658\ngini = 0.3299\nsamples = 24\nvalue = [5, 19]"] ;
979 -> 1147 ;
1148 [label="X[3] <= 0.3653\ngini = 0.18\nsamples = 20\nvalue = [2, 18]"] ;
1147 -> 1148 ;
1149 [label="X[3] <= 0.3653\ngini = 0.4082\nsamples = 7\nvalue = [2, 5]"] ;
1148 -> 1149 ;
1150 [label="X[0] <= -0.2643\ngini = 0.2778\nsamples = 6\nvalue = [1, 5]"] ;
1149 -> 1150 ;
1151 [label="X[3] <= 0.3653\ngini = 0.5\nsamples = 2\nvalue = [1, 1]"] ;
1150 -> 1151 ;
1152 [label="gini = 0.0\nsamples = 1\nvalue = [1, 0]"] ;
1151 -> 1152 ;
1153 [label="gini = 0.0\nsamples = 1\nvalue = [0, 1]"] ;
1151 -> 1153 ;
1154 [label="gini = 0.0\nsamples = 4\nvalue = [0, 4]"] ;
1150 -> 1154 ;
1155 [label="gini = 0.0\nsamples = 1\nvalue = [1, 0]"] ;
1149 -> 1155 ;
1156 [label="gini = 0.0\nsamples = 13\nvalue = [0, 13]"] ;
1148 -> 1156 ;
1157 [label="X[2] <= 0.542\ngini = 0.375\nsamples = 4\nvalue = [3, 1]"] ;
1147 -> 1157 ;
1158 [label="gini = 0.0\nsamples = 1\nvalue = [0, 1]"] ;
1157 -> 1158 ;
1159 [label="gini = 0.0\nsamples = 3\nvalue = [3, 0]"] ;
1157 -> 1159 ;
1160 [label="X[3] <= 0.6207\ngini = 0.5\nsamples = 2\nvalue = [1, 1]"] ;
978 -> 1160 ;
1161 [label="gini = 0.0\nsamples = 1\nvalue = [0, 1]"] ;
1160 -> 1161 ;
1162 [label="gini = 0.0\nsamples = 1\nvalue = [1, 0]"] ;
1160 -> 1162 ;
1163 [label="X[2] <= 1.5219\ngini = 0.5\nsamples = 2\nvalue = [1, 1]"] ;
977 -> 1163 ;
1164 [label="gini = 0.0\nsamples = 1\nvalue = [1, 0]"] ;
1163 -> 1164 ;
1165 [label="gini = 0.0\nsamples = 1\nvalue = [0, 1]"] ;
1163 -> 1165 ;
1166 [label="X[3] <= 0.6218\ngini = 0.4082\nsamples = 14\nvalue = [4, 10]"] ;
470 -> 1166 ;
1167 [label="X[2] <= -0.3745\ngini = 0.375\nsamples = 4\nvalue = [3, 1]"] ;
1166 -> 1167 ;
1168 [label="gini = 0.0\nsamples = 3\nvalue = [3, 0]"] ;
1167 -> 1168 ;
1169 [label="gini = 0.0\nsamples = 1\nvalue = [0, 1]"] ;
1167 -> 1169 ;
1170 [label="X[2] <= -0.369\ngini = 0.18\nsamples = 10\nvalue = [1, 9]"] ;
1166 -> 1170 ;
1171 [label="gini = 0.0\nsamples = 8\nvalue = [0, 8]"] ;
1170 -> 1171 ;
1172 [label="X[1] <= -2.0778\ngini = 0.5\nsamples = 2\nvalue = [1, 1]"] ;
1170 -> 1172 ;
1173 [label="gini = 0.0\nsamples = 1\nvalue = [1, 0]"] ;
1172 -> 1173 ;
1174 [label="gini = 0.0\nsamples = 1\nvalue = [0, 1]"] ;
1172 -> 1174 ;
1175 [label="gini = 0.0\nsamples = 1\nvalue = [1, 0]"] ;
469 -> 1175 ;
1176 [label="X[0] <= -0.2592\ngini = 0.4444\nsamples = 3\nvalue = [2, 1]"] ;
282 -> 1176 ;
1177 [label="gini = 0.0\nsamples = 2\nvalue = [2, 0]"] ;
1176 -> 1177 ;
1178 [label="gini = 0.0\nsamples = 1\nvalue = [0, 1]"] ;
1176 -> 1178 ;
1179 [label="gini = 0.0\nsamples = 1\nvalue = [1, 0]"] ;
115 -> 1179 ;
1180 [label="gini = 0.0\nsamples = 1\nvalue = [1, 0]"] ;
114 -> 1180 ;
1181 [label="X[2] <= 2.1574\ngini = 0.0638\nsamples = 91\nvalue = [3, 88]"] ;
113 -> 1181 ;
1182 [label="gini = 0.0\nsamples = 35\nvalue = [0, 35]"] ;
1181 -> 1182 ;
1183 [label="X[2] <= 2.1574\ngini = 0.1014\nsamples = 56\nvalue = [3, 53]"] ;
1181 -> 1183 ;
1184 [label="gini = 0.0\nsamples = 1\nvalue = [1, 0]"] ;
1183 -> 1184 ;
1185 [label="X[0] <= -0.2848\ngini = 0.0701\nsamples = 55\nvalue = [2, 53]"] ;
1183 -> 1185 ;
1186 [label="X[3] <= 3.3716\ngini = 0.1884\nsamples = 19\nvalue = [2, 17]"] ;
1185 -> 1186 ;
1187 [label="X[3] <= 3.3714\ngini = 0.32\nsamples = 10\nvalue = [2, 8]"] ;
1186 -> 1187 ;
1188 [label="X[3] <= 3.3711\ngini = 0.1975\nsamples = 9\nvalue = [1, 8]"] ;
1187 -> 1188 ;
1189 [label="gini = 0.0\nsamples = 5\nvalue = [0, 5]"] ;
1188 -> 1189 ;
1190 [label="X[2] <= 3.4162\ngini = 0.375\nsamples = 4\nvalue = [1, 3]"] ;
1188 -> 1190 ;
1191 [label="gini = 0.0\nsamples = 1\nvalue = [1, 0]"] ;
1190 -> 1191 ;
1192 [label="gini = 0.0\nsamples = 3\nvalue = [0, 3]"] ;
1190 -> 1192 ;
1193 [label="gini = 0.0\nsamples = 1\nvalue = [1, 0]"] ;
1187 -> 1193 ;
1194 [label="gini = 0.0\nsamples = 9\nvalue = [0, 9]"] ;
1186 -> 1194 ;
1195 [label="gini = 0.0\nsamples = 36\nvalue = [0, 36]"] ;
1185 -> 1195 ;
1196 [label="gini = 0.0\nsamples = 1\nvalue = [1, 0]"] ;
10 -> 1196 ;
1197 [label="gini = 0.0\nsamples = 1\nvalue = [1, 0]"] ;
9 -> 1197 ;
1198 [label="gini = 0.0\nsamples = 1\nvalue = [1, 0]"] ;
8 -> 1198 ;
1199 [label="gini = 0.0\nsamples = 1\nvalue = [1, 0]"] ;
7 -> 1199 ;
1200 [label="gini = 0.0\nsamples = 1\nvalue = [1, 0]"] ;
6 -> 1200 ;
1201 [label="X[3] <= -0.5867\ngini = 0.3026\nsamples = 113\nvalue = [21, 92]"] ;
5 -> 1201 ;
1202 [label="gini = 0.0\nsamples = 18\nvalue = [0, 18]"] ;
1201 -> 1202 ;
1203 [label="X[3] <= -0.5864\ngini = 0.3444\nsamples = 95\nvalue = [21, 74]"] ;
1201 -> 1203 ;
1204 [label="gini = 0.0\nsamples = 5\nvalue = [5, 0]"] ;
1203 -> 1204 ;
1205 [label="X[2] <= -0.6962\ngini = 0.2923\nsamples = 90\nvalue = [16, 74]"] ;
1203 -> 1205 ;
1206 [label="gini = 0.0\nsamples = 1\nvalue = [1, 0]"] ;
1205 -> 1206 ;
1207 [label="X[401] <= 15.6737\ngini = 0.2803\nsamples = 89\nvalue = [15, 74]"] ;
1205 -> 1207 ;
1208 [label="X[2] <= -0.6489\ngini = 0.2676\nsamples = 88\nvalue = [14, 74]"] ;
1207 -> 1208 ;
1209 [label="X[2] <= -0.6903\ngini = 0.149\nsamples = 37\nvalue = [3, 34]"] ;
1208 -> 1209 ;
1210 [label="X[154] <= 3.2998\ngini = 0.4444\nsamples = 3\nvalue = [1, 2]"] ;
1209 -> 1210 ;
1211 [label="gini = 0.0\nsamples = 1\nvalue = [1, 0]"] ;
1210 -> 1211 ;
1212 [label="gini = 0.0\nsamples = 2\nvalue = [0, 2]"] ;
1210 -> 1212 ;
1213 [label="X[0] <= 0.3359\ngini = 0.1107\nsamples = 34\nvalue = [2, 32]"] ;
1209 -> 1213 ;
1214 [label="gini = 0.0\nsamples = 20\nvalue = [0, 20]"] ;
1213 -> 1214 ;
1215 [label="X[0] <= 0.377\ngini = 0.2449\nsamples = 14\nvalue = [2, 12]"] ;
1213 -> 1215 ;
1216 [label="gini = 0.0\nsamples = 1\nvalue = [1, 0]"] ;
1215 -> 1216 ;
1217 [label="X[0] <= 0.4283\ngini = 0.142\nsamples = 13\nvalue = [1, 12]"] ;
1215 -> 1217 ;
1218 [label="X[2] <= -0.671\ngini = 0.4444\nsamples = 3\nvalue = [1, 2]"] ;
1217 -> 1218 ;
1219 [label="gini = 0.0\nsamples = 2\nvalue = [0, 2]"] ;
1218 -> 1219 ;
1220 [label="gini = 0.0\nsamples = 1\nvalue = [1, 0]"] ;
1218 -> 1220 ;
1221 [label="gini = 0.0\nsamples = 10\nvalue = [0, 10]"] ;
1217 -> 1221 ;
1222 [label="X[2] <= -0.6325\ngini = 0.3383\nsamples = 51\nvalue = [11, 40]"] ;
1208 -> 1222 ;
1223 [label="X[302] <= 1.0507\ngini = 0.4444\nsamples = 3\nvalue = [2, 1]"] ;
1222 -> 1223 ;
1224 [label="gini = 0.0\nsamples = 2\nvalue = [2, 0]"] ;
1223 -> 1224 ;
1225 [label="gini = 0.0\nsamples = 1\nvalue = [0, 1]"] ;
1223 -> 1225 ;
1226 [label="X[3] <= -0.5853\ngini = 0.3047\nsamples = 48\nvalue = [9, 39]"] ;
1222 -> 1226 ;
1227 [label="X[3] <= -0.5856\ngini = 0.3967\nsamples = 22\nvalue = [6, 16]"] ;
1226 -> 1227 ;
1228 [label="X[0] <= 0.1615\ngini = 0.32\nsamples = 20\nvalue = [4, 16]"] ;
1227 -> 1228 ;
1229 [label="gini = 0.0\nsamples = 1\nvalue = [1, 0]"] ;
1228 -> 1229 ;
1230 [label="X[2] <= -0.1807\ngini = 0.2659\nsamples = 19\nvalue = [3, 16]"] ;
1228 -> 1230 ;
1231 [label="gini = 0.0\nsamples = 11\nvalue = [0, 11]"] ;
1230 -> 1231 ;
1232 [label="X[2] <= -0.179\ngini = 0.4688\nsamples = 8\nvalue = [3, 5]"] ;
1230 -> 1232 ;
1233 [label="gini = 0.0\nsamples = 3\nvalue = [3, 0]"] ;
1232 -> 1233 ;
1234 [label="gini = 0.0\nsamples = 5\nvalue = [0, 5]"] ;
1232 -> 1234 ;
1235 [label="gini = 0.0\nsamples = 2\nvalue = [2, 0]"] ;
1227 -> 1235 ;
1236 [label="X[2] <= -0.2029\ngini = 0.2041\nsamples = 26\nvalue = [3, 23]"] ;
1226 -> 1236 ;
1237 [label="X[2] <= -0.3432\ngini = 0.42\nsamples = 10\nvalue = [3, 7]"] ;
1236 -> 1237 ;
1238 [label="X[2] <= -0.6251\ngini = 0.2188\nsamples = 8\nvalue = [1, 7]"] ;
1237 -> 1238 ;
1239 [label="X[2] <= -0.6289\ngini = 0.4444\nsamples = 3\nvalue = [1, 2]"] ;
1238 -> 1239 ;
1240 [label="gini = 0.0\nsamples = 2\nvalue = [0, 2]"] ;
1239 -> 1240 ;
1241 [label="gini = 0.0\nsamples = 1\nvalue = [1, 0]"] ;
1239 -> 1241 ;
1242 [label="gini = 0.0\nsamples = 5\nvalue = [0, 5]"] ;
1238 -> 1242 ;
1243 [label="gini = 0.0\nsamples = 2\nvalue = [2, 0]"] ;
1237 -> 1243 ;
1244 [label="gini = 0.0\nsamples = 16\nvalue = [0, 16]"] ;
1236 -> 1244 ;
